{"learner":{"attributes":{"scikit_learn":"{\"_estimator_type\": \"classifier\"}"},"feature_names":["CPU_Usage","Memory_Usage","Disk_Usage","Network_Traffic","Pod_Restarts","Response_Time","CPU_Usage_lag_1","CPU_Usage_lag_2","CPU_Usage_lag_3","CPU_Usage_lag_4","CPU_Usage_lag_5","Memory_Usage_lag_1","Memory_Usage_lag_2","Memory_Usage_lag_3","Memory_Usage_lag_4","Memory_Usage_lag_5","Network_Traffic_lag_1","Network_Traffic_lag_2","Network_Traffic_lag_3","Network_Traffic_lag_4","Network_Traffic_lag_5","Pod_Restarts_lag_1","Pod_Restarts_lag_2","Pod_Restarts_lag_3","Pod_Restarts_lag_4","Pod_Restarts_lag_5","Response_Time_lag_1","Response_Time_lag_2","Response_Time_lag_3","Response_Time_lag_4","Response_Time_lag_5","CPU_Usage_roll_mean","CPU_Usage_roll_std","Memory_Usage_roll_mean","Memory_Usage_roll_std","Network_Traffic_roll_mean","Network_Traffic_roll_std","Pod_Restarts_roll_mean","Pod_Restarts_roll_std","Response_Time_roll_mean","Response_Time_roll_std","Network_Response_Ratio","Pod_Restarts_Flag"],"feature_types":["float","float","float","float","float","float","float","float","float","float","float","float","float","float","float","float","float","float","float","float","float","float","float","float","float","float","float","float","float","float","float","float","float","float","float","float","float","float","float","float","float","float","int"],"gradient_booster":{"model":{"gbtree_model_param":{"num_parallel_tree":"1","num_trees":"200"},"iteration_indptr":[0,1,2,3,4,5,6,7,8,9,10,11,12,13,14,15,16,17,18,19,20,21,22,23,24,25,26,27,28,29,30,31,32,33,34,35,36,37,38,39,40,41,42,43,44,45,46,47,48,49,50,51,52,53,54,55,56,57,58,59,60,61,62,63,64,65,66,67,68,69,70,71,72,73,74,75,76,77,78,79,80,81,82,83,84,85,86,87,88,89,90,91,92,93,94,95,96,97,98,99,100,101,102,103,104,105,106,107,108,109,110,111,112,113,114,115,116,117,118,119,120,121,122,123,124,125,126,127,128,129,130,131,132,133,134,135,136,137,138,139,140,141,142,143,144,145,146,147,148,149,150,151,152,153,154,155,156,157,158,159,160,161,162,163,164,165,166,167,168,169,170,171,172,173,174,175,176,177,178,179,180,181,182,183,184,185,186,187,188,189,190,191,192,193,194,195,196,197,198,199,200],"tree_info":[0,0,0,0,0,0,0,0,0,0,0,0,0,0,0,0,0,0,0,0,0,0,0,0,0,0,0,0,0,0,0,0,0,0,0,0,0,0,0,0,0,0,0,0,0,0,0,0,0,0,0,0,0,0,0,0,0,0,0,0,0,0,0,0,0,0,0,0,0,0,0,0,0,0,0,0,0,0,0,0,0,0,0,0,0,0,0,0,0,0,0,0,0,0,0,0,0,0,0,0,0,0,0,0,0,0,0,0,0,0,0,0,0,0,0,0,0,0,0,0,0,0,0,0,0,0,0,0,0,0,0,0,0,0,0,0,0,0,0,0,0,0,0,0,0,0,0,0,0,0,0,0,0,0,0,0,0,0,0,0,0,0,0,0,0,0,0,0,0,0,0,0,0,0,0,0,0,0,0,0,0,0,0,0,0,0,0,0,0,0,0,0,0,0,0,0,0,0,0,0],"trees":[{"base_weights":[1.6389511E-6,-1.4571201E0,1.150595E0,-1.819322E0,-5.1533854E-1,-1.5089569E-2,1.3620802E0,-1.8946741E0,-1.448204E0,-6.6111463E-1,-2.4652204E-1,-4.5290148E-1,2.2006567E-1,4.4125926E-1,1.5180987E0,-1.9190007E0,-1.258443E0,-1.5213668E0,-6.87234E-1,-7.305804E-1,-3.332792E-1,-1.3886622E-1,-1.0912739E0,-5.6095666E-1,4.1226172E-1,3.0820093E-1,-6.7692137E-1,3.911667E-2,6.822741E-1,7.531391E-1,1.5811567E0,-1.9302031E0,-1.4353449E0,-7.334388E-1,-1.3925775E0,-1.5533231E0,-1.1090827E0,-7.4004215E-1,8.119244E-1,-7.71833E-1,-2.646179E-1,3.559304E-1,-4.3898025E-1,-5.152956E-2,-1.1235802E0,-1.6714693E0,-3.1261125E-1,-4.4528738E-1,-1.4651673E0,5.936294E-1,-9.895471E-2,3.6102775E-1,-1.3395783E0,-1.1153606E0,1.8464957E-1,-2.840093E-1,2.539402E-1,2.7843547E-1,9.163301E-1,3.6108053E-1,9.176621E-1,9.184363E-1,1.6251229E0,-1.9485385E0,-1.6789587E0,-1.4584637E0,5.8287855E-2,-7.9486126E-1,6.230179E-1,-1.6999816E0,-1.2823122E0,-1.561275E0,-8.0048585E-1,-4.450955E-1,-1.2141888E0,-9.0994105E-2,-6.9847023E-1,7.104877E-2,1.2132087E-1,-8.6652374E-1,-6.02701E-1,3.999304E-1,-3.514754E-1,-4.753688E-1,4.790716E-1,-5.654182E-1,9.767292E-3,5.3694624E-2,-6.173252E-1,-7.0173186E-1,-1.6206568E0,-7.7359766E-1,-1.8845173E0,-3.8914928E-1,8.655369E-1,-3.683011E-1,-1.7473357E0,-5.5131954E-1,-1.7541275E0,6.7941195E-1,-5.3616256E-1,-6.4503187E-1,3.0468357E-1,8.20007E-2,5.752367E-1,-1.6377282E0,-7.6337516E-1,-1.5827192E0,-5.0354147E-1,3.8631934E-1,-3.6737192E-1,-5.739139E-1,-9.57254E-2,-7.328137E-2,5.101346E-1,-1.9177504E-2,4.860416E-1,4.946615E-1,1.1004891E0,5.8466673E-2,4.753985E-1,9.8398525E-1,-6.537197E-2,5.2046466E-1,1.077853E0,1.0454228E0,1.6506176E0,-9.758886E-2,-6.707864E-2,-8.607261E-2,-7.271478E-2,-6.2799804E-2,-8.367842E-2,1.9126246E-2,-4.2997424E-2,-4.1199993E-2,6.496299E-2,-9.497562E-2,-7.603593E-2,-7.044173E-2,-4.714034E-2,-7.9523906E-2,-6.7564584E-2,-2.1219272E-2,-8.044144E-2,3.7007827E-2,-3.394855E-2,-6.558966E-2,-3.7671957E-2,-1.7644059E-2,-4.0648546E-2,-4.6685107E-2,3.9205723E-2,-5.419543E-2,-4.108965E-2,-1.8167114E-2,-4.385003E-2,-5.1704824E-2,2.9866064E-2,-3.8555816E-2,-1.195958E-2,-5.6708913E-2,9.372308E-3,-2.5409153E-2,2.8964931E-2,-2.4399064E-2,-5.772681E-2,1.9340051E-2,-1.059409E-2,-4.9381014E-3,2.7895287E-2,-8.1964016E-2,-1.9020332E-2,-3.8175695E-2,2.2770593E-2,-8.850961E-2,-2.4128435E-2,4.8669875E-3,-5.4689597E-2,-9.696164E-2,3.1141022E-3,-1.4040927E-2,-5.6199312E-2,5.9630066E-2,-1.0756513E-2,-3.4504354E-2,-9.886624E-3,-2.7989749E-2,-9.327368E-2,-3.6671553E-2,1.885567E-2,-9.12732E-2,2.7874578E-2,6.104801E-2,2.6987439E-2,3.553471E-2,-5.346436E-2,-4.9550034E-2,-4.8830076E-3,-1.3792797E-3,4.171813E-2,-9.68546E-3,1.3654175E-2,2.0750938E-2,4.891474E-2,-2.6630033E-2,-8.9692175E-2,5.1879114E-3,-6.0801703E-2,-1.5497552E-2,-9.253792E-2,4.4810027E-2,-2.7882922E-2,6.1640203E-2,1.2166156E-2,-3.4916755E-2,1.8656207E-2,-1.1867277E-2,-3.7510477E-2,-1.7683592E-2,6.137548E-3,-1.7222656E-2,7.4823485E-3,1.423637E-2,3.3833217E-2,-1.8868254E-2,1.2450972E-2,2.9258763E-2,5.264371E-3,1.0522933E-2,3.410102E-2,3.5199873E-2,6.2771544E-2,-1.6005296E-2,1.5248256E-2,2.5335295E-2,-4.4238467E-2,3.4729566E-2,5.4770615E-2,-1.4011785E-2,3.7344486E-2,7.2775283E-3,3.363095E-2,3.379282E-2,6.12803E-2,5.725949E-2,2.978292E-2,6.1208934E-2,8.337247E-2],"categories":[],"categories_nodes":[],"categories_segments":[],"categories_sizes":[],"default_left":[0,0,0,0,0,0,0,0,0,0,0,0,0,0,0,0,0,0,0,0,0,0,0,0,0,0,0,0,0,0,0,0,0,0,0,0,0,0,0,0,0,0,0,0,0,0,0,0,0,0,0,0,0,0,0,0,0,0,0,0,0,0,0,0,0,0,0,0,0,0,0,0,0,0,0,0,0,0,0,0,0,0,0,0,0,0,0,0,0,0,0,0,0,0,0,0,0,0,0,0,0,0,0,0,0,0,0,0,0,0,0,0,0,0,0,0,0,0,0,0,0,0,0,0,0,0,0,0,0,0,0,0,0,0,0,0,0,0,0,0,0,0,0,0,0,0,0,0,0,0,0,0,0,0,0,0,0,0,0,0,0,0,0,0,0,0,0,0,0,0,0,0,0,0,0,0,0,0,0,0,0,0,0,0,0,0,0,0,0,0,0,0,0,0,0,0,0,0,0,0,0,0,0,0,0,0,0,0,0,0,0,0,0,0,0,0,0,0,0,0,0,0,0,0,0,0,0,0,0,0,0,0,0,0,0,0,0,0,0,0,0,0,0,0,0,0,0,0,0],"id":0,"left_children":[1,3,5,7,9,11,13,15,17,19,21,23,25,27,29,31,33,35,37,39,41,43,45,47,49,51,53,55,57,59,61,63,65,67,69,71,73,75,77,79,81,83,85,87,89,91,93,95,97,99,101,103,105,107,109,111,113,115,117,119,121,123,125,127,129,131,-1,133,135,137,139,141,143,145,147,-1,149,-1,151,153,155,157,159,161,163,165,167,169,171,173,175,177,179,181,183,185,187,189,191,193,195,197,199,201,203,205,207,209,211,213,215,217,219,221,223,225,227,229,231,233,235,237,239,241,243,245,247,-1,-1,-1,-1,-1,-1,-1,-1,-1,-1,-1,-1,-1,-1,-1,-1,-1,-1,-1,-1,-1,-1,-1,-1,-1,-1,-1,-1,-1,-1,-1,-1,-1,-1,-1,-1,-1,-1,-1,-1,-1,-1,-1,-1,-1,-1,-1,-1,-1,-1,-1,-1,-1,-1,-1,-1,-1,-1,-1,-1,-1,-1,-1,-1,-1,-1,-1,-1,-1,-1,-1,-1,-1,-1,-1,-1,-1,-1,-1,-1,-1,-1,-1,-1,-1,-1,-1,-1,-1,-1,-1,-1,-1,-1,-1,-1,-1,-1,-1,-1,-1,-1,-1,-1,-1,-1,-1,-1,-1,-1,-1,-1,-1,-1,-1,-1,-1,-1,-1,-1,-1,-1],"loss_changes":[1.0196068E5,9.152363E3,8.377477E3,5.391992E2,2.9196887E2,5.3746295E2,4.131664E3,2.4685938E2,1.8128906E2,1.0982031E2,2.3837256E2,1.7076407E2,2.6870685E2,4.0402814E2,1.1852305E3,8.1265625E1,4.095233E1,3.7629395E1,2.3486557E1,7.6437256E1,6.1850296E1,2.0010901E2,1.3334961E2,1.689974E2,1.8890842E1,2.6973108E2,1.1510396E2,1.0858754E2,2.4611975E2,1.2061206E2,6.605625E2,6.655469E1,2.3049011E1,1.0777031E1,1.387439E1,1.5330078E1,1.46987915E1,1.1287811E1,4.165468E0,5.8131104E1,1.8946218E1,1.18117485E1,4.1691483E1,1.2737423E2,3.861264E1,3.0979523E1,1.1856648E1,1.4365436E2,4.749637E1,1.4908047E1,1.2109235E1,1.7913348E2,1.5292908E1,5.6884415E1,1.1657579E1,3.404665E1,7.8800644E1,5.919052E1,1.27563965E2,1.9202927E1,8.613342E1,8.927026E1,3.1317578E2,2.5132812E1,7.4069824E0,1.3242859E1,0E0,9.4099045E0,6.8503504E0,1.473999E0,1.3820374E1,1.4649902E1,8.741737E0,9.212326E0,7.463501E0,0E0,1.0437302E1,0E0,4.8762197E0,2.1917236E1,8.620068E1,1.1410453E1,1.3417564E1,6.807144E0,1.0096287E1,2.558638E1,1.3660757E1,1.3876192E2,8.060482E1,7.8045616E0,1.3825729E1,9.648298E0,1.4645294E1,9.288683E0,3.1206465E0,7.453293E1,1.0192673E1,7.9778986E0,2.3935791E1,9.923454E0,8.170977E0,4.313901E0,5.6117935E0,6.870487E1,1.09099365E2,9.842453E0,1.3750172E1,3.828293E1,7.2284775E0,8.929635E0,7.1694937E0,1.4406113E1,2.1456055E1,2.5045372E1,1.9592484E1,3.7997234E1,2.1237366E1,2.6656166E1,6.960632E1,1.4427475E1,1.7623589E1,3.9119507E1,1.4934722E1,2.3113518E1,5.9163574E1,3.9716248E1,1.444414E2,0E0,0E0,0E0,0E0,0E0,0E0,0E0,0E0,0E0,0E0,0E0,0E0,0E0,0E0,0E0,0E0,0E0,0E0,0E0,0E0,0E0,0E0,0E0,0E0,0E0,0E0,0E0,0E0,0E0,0E0,0E0,0E0,0E0,0E0,0E0,0E0,0E0,0E0,0E0,0E0,0E0,0E0,0E0,0E0,0E0,0E0,0E0,0E0,0E0,0E0,0E0,0E0,0E0,0E0,0E0,0E0,0E0,0E0,0E0,0E0,0E0,0E0,0E0,0E0,0E0,0E0,0E0,0E0,0E0,0E0,0E0,0E0,0E0,0E0,0E0,0E0,0E0,0E0,0E0,0E0,0E0,0E0,0E0,0E0,0E0,0E0,0E0,0E0,0E0,0E0,0E0,0E0,0E0,0E0,0E0,0E0,0E0,0E0,0E0,0E0,0E0,0E0,0E0,0E0,0E0,0E0,0E0,0E0,0E0,0E0,0E0,0E0,0E0,0E0,0E0,0E0,0E0,0E0,0E0,0E0,0E0,0E0],"parents":[2147483647,0,0,1,1,2,2,3,3,4,4,5,5,6,6,7,7,8,8,9,9,10,10,11,11,12,12,13,13,14,14,15,15,16,16,17,17,18,18,19,19,20,20,21,21,22,22,23,23,24,24,25,25,26,26,27,27,28,28,29,29,30,30,31,31,32,32,33,33,34,34,35,35,36,36,37,37,38,38,39,39,40,40,41,41,42,42,43,43,44,44,45,45,46,46,47,47,48,48,49,49,50,50,51,51,52,52,53,53,54,54,55,55,56,56,57,57,58,58,59,59,60,60,61,61,62,62,63,63,64,64,65,65,67,67,68,68,69,69,70,70,71,71,72,72,73,73,74,74,76,76,78,78,79,79,80,80,81,81,82,82,83,83,84,84,85,85,86,86,87,87,88,88,89,89,90,90,91,91,92,92,93,93,94,94,95,95,96,96,97,97,98,98,99,99,100,100,101,101,102,102,103,103,104,104,105,105,106,106,107,107,108,108,109,109,110,110,111,111,112,112,113,113,114,114,115,115,116,116,117,117,118,118,119,119,120,120,121,121,122,122,123,123,124,124,125,125,126,126],"right_children":[2,4,6,8,10,12,14,16,18,20,22,24,26,28,30,32,34,36,38,40,42,44,46,48,50,52,54,56,58,60,62,64,66,68,70,72,74,76,78,80,82,84,86,88,90,92,94,96,98,100,102,104,106,108,110,112,114,116,118,120,122,124,126,128,130,132,-1,134,136,138,140,142,144,146,148,-1,150,-1,152,154,156,158,160,162,164,166,168,170,172,174,176,178,180,182,184,186,188,190,192,194,196,198,200,202,204,206,208,210,212,214,216,218,220,222,224,226,228,230,232,234,236,238,240,242,244,246,248,-1,-1,-1,-1,-1,-1,-1,-1,-1,-1,-1,-1,-1,-1,-1,-1,-1,-1,-1,-1,-1,-1,-1,-1,-1,-1,-1,-1,-1,-1,-1,-1,-1,-1,-1,-1,-1,-1,-1,-1,-1,-1,-1,-1,-1,-1,-1,-1,-1,-1,-1,-1,-1,-1,-1,-1,-1,-1,-1,-1,-1,-1,-1,-1,-1,-1,-1,-1,-1,-1,-1,-1,-1,-1,-1,-1,-1,-1,-1,-1,-1,-1,-1,-1,-1,-1,-1,-1,-1,-1,-1,-1,-1,-1,-1,-1,-1,-1,-1,-1,-1,-1,-1,-1,-1,-1,-1,-1,-1,-1,-1,-1,-1,-1,-1,-1,-1,-1,-1,-1,-1,-1],"split_conditions":[-2.3982656E-1,-6.7183834E-1,-9.582262E-2,2.1660961E-1,-9.582262E-2,-9.582262E-2,-9.582262E-2,1.5551333E0,-9.582262E-2,5.786311E-1,7.3372245E-1,5.61995E-1,5.7317567E-1,-9.582262E-2,-9.582262E-2,-9.582262E-2,1.3821602E-2,8.279049E-1,1.3442286E0,1.643833E0,3.331341E-1,4.7694343E-1,4.9593234E-1,5.594165E-1,5.468029E-1,6.128028E-1,5.807933E-1,-9.582262E-2,-9.582262E-2,-9.582262E-2,-9.582262E-2,3.5823232E-1,4.2102617E-1,1.9296311E-1,5.519548E-1,1.4652158E0,5.304152E1,-1.0704639E0,3.8278468E-2,-3.838305E-1,-6.840363E-1,4.4756353E-1,1.5842087E0,3.9016265E-1,-9.582262E-2,-9.582262E-2,9.3693787E-1,7.8558505E-1,-9.582262E-2,5.293503E-2,9.086886E-1,-9.582262E-2,2.1860895E-1,7.200197E-1,7.173378E-1,-9.582262E-2,-9.582262E-2,-9.582262E-2,-9.582262E-2,-9.582262E-2,5.225068E-1,-9.582262E-2,-9.582262E-2,6.904921E-1,8.055385E-1,1.7340548E-1,5.8287855E-2,-1.3766711E0,5.6279264E-2,4.4509324E-1,-9.582262E-2,6.682565E1,8.1866974E-1,3.6018652E-1,1.2568102E0,-9.0994105E-2,-6.2058395E-1,7.104877E-2,1.2755313E0,-9.01948E-1,7.200197E-1,1.418578E0,-1.1672387E0,4.6232918E-1,5.073778E-2,7.837894E-1,6.687022E-1,5.8637834E-1,-2.0301327E-1,3.5452422E-1,9.8370224E-1,6.9302075E-2,5.7890385E-1,6.2419707E-1,-9.582262E-2,-9.582262E-2,8.261733E-2,7.3201865E-1,6.183916E-1,3.9129862E-1,7.26456E-1,4.1257016E-2,3.0042343E0,-9.582262E-2,2.9756814E-1,4.7316003E-1,-6.62967E-1,-9.582262E-2,-5.0066334E-1,6.2145066E-1,2.8825889E0,4.9803026E-2,-9.582262E-2,-9.582262E-2,-9.582262E-2,-9.582262E-2,3.918406E-1,-9.582262E-2,-9.582262E-2,-4.5838115E-1,5.673758E-1,-9.582262E-2,1.6082624E0,-9.582262E-2,-9.582262E-2,3.2338253E-1,-9.582262E-2,-9.758886E-2,-6.707864E-2,-8.607261E-2,-7.271478E-2,-6.2799804E-2,-8.367842E-2,1.9126246E-2,-4.2997424E-2,-4.1199993E-2,6.496299E-2,-9.497562E-2,-7.603593E-2,-7.044173E-2,-4.714034E-2,-7.9523906E-2,-6.7564584E-2,-2.1219272E-2,-8.044144E-2,3.7007827E-2,-3.394855E-2,-6.558966E-2,-3.7671957E-2,-1.7644059E-2,-4.0648546E-2,-4.6685107E-2,3.9205723E-2,-5.419543E-2,-4.108965E-2,-1.8167114E-2,-4.385003E-2,-5.1704824E-2,2.9866064E-2,-3.8555816E-2,-1.195958E-2,-5.6708913E-2,9.372308E-3,-2.5409153E-2,2.8964931E-2,-2.4399064E-2,-5.772681E-2,1.9340051E-2,-1.059409E-2,-4.9381014E-3,2.7895287E-2,-8.1964016E-2,-1.9020332E-2,-3.8175695E-2,2.2770593E-2,-8.850961E-2,-2.4128435E-2,4.8669875E-3,-5.4689597E-2,-9.696164E-2,3.1141022E-3,-1.4040927E-2,-5.6199312E-2,5.9630066E-2,-1.0756513E-2,-3.4504354E-2,-9.886624E-3,-2.7989749E-2,-9.327368E-2,-3.6671553E-2,1.885567E-2,-9.12732E-2,2.7874578E-2,6.104801E-2,2.6987439E-2,3.553471E-2,-5.346436E-2,-4.9550034E-2,-4.8830076E-3,-1.3792797E-3,4.171813E-2,-9.68546E-3,1.3654175E-2,2.0750938E-2,4.891474E-2,-2.6630033E-2,-8.9692175E-2,5.1879114E-3,-6.0801703E-2,-1.5497552E-2,-9.253792E-2,4.4810027E-2,-2.7882922E-2,6.1640203E-2,1.2166156E-2,-3.4916755E-2,1.8656207E-2,-1.1867277E-2,-3.7510477E-2,-1.7683592E-2,6.137548E-3,-1.7222656E-2,7.4823485E-3,1.423637E-2,3.3833217E-2,-1.8868254E-2,1.2450972E-2,2.9258763E-2,5.264371E-3,1.0522933E-2,3.410102E-2,3.5199873E-2,6.2771544E-2,-1.6005296E-2,1.5248256E-2,2.5335295E-2,-4.4238467E-2,3.4729566E-2,5.4770615E-2,-1.4011785E-2,3.7344486E-2,7.2775283E-3,3.363095E-2,3.379282E-2,6.12803E-2,5.725949E-2,2.978292E-2,6.1208934E-2,8.337247E-2],"split_indices":[37,37,4,40,25,21,25,15,25,30,40,26,40,22,22,25,34,39,39,33,40,34,3,40,40,34,3,21,24,24,23,34,36,26,13,35,2,39,34,37,35,26,39,32,24,24,6,34,25,34,16,25,1,38,9,23,23,21,21,23,40,24,21,30,15,30,0,39,36,34,25,2,5,40,39,0,10,0,28,26,38,15,28,27,36,32,40,39,5,30,1,32,5,21,24,22,15,20,5,10,0,34,20,23,5,14,17,25,39,36,29,34,24,24,24,23,40,23,23,39,34,23,17,21,21,40,24,0,0,0,0,0,0,0,0,0,0,0,0,0,0,0,0,0,0,0,0,0,0,0,0,0,0,0,0,0,0,0,0,0,0,0,0,0,0,0,0,0,0,0,0,0,0,0,0,0,0,0,0,0,0,0,0,0,0,0,0,0,0,0,0,0,0,0,0,0,0,0,0,0,0,0,0,0,0,0,0,0,0,0,0,0,0,0,0,0,0,0,0,0,0,0,0,0,0,0,0,0,0,0,0,0,0,0,0,0,0,0,0,0,0,0,0,0,0,0,0,0,0],"split_type":[0,0,0,0,0,0,0,0,0,0,0,0,0,0,0,0,0,0,0,0,0,0,0,0,0,0,0,0,0,0,0,0,0,0,0,0,0,0,0,0,0,0,0,0,0,0,0,0,0,0,0,0,0,0,0,0,0,0,0,0,0,0,0,0,0,0,0,0,0,0,0,0,0,0,0,0,0,0,0,0,0,0,0,0,0,0,0,0,0,0,0,0,0,0,0,0,0,0,0,0,0,0,0,0,0,0,0,0,0,0,0,0,0,0,0,0,0,0,0,0,0,0,0,0,0,0,0,0,0,0,0,0,0,0,0,0,0,0,0,0,0,0,0,0,0,0,0,0,0,0,0,0,0,0,0,0,0,0,0,0,0,0,0,0,0,0,0,0,0,0,0,0,0,0,0,0,0,0,0,0,0,0,0,0,0,0,0,0,0,0,0,0,0,0,0,0,0,0,0,0,0,0,0,0,0,0,0,0,0,0,0,0,0,0,0,0,0,0,0,0,0,0,0,0,0,0,0,0,0,0,0,0,0,0,0,0,0,0,0,0,0,0,0,0,0,0,0,0,0],"sum_hessian":[6.081361E4,2.6832465E4,3.398114E4,1.9378654E4,7.4538115E3,5.218462E3,2.876268E4,1.6104647E4,3.2740063E3,4.8320093E3,2.6218022E3,1.8231661E3,3.395296E3,4.1678516E3,2.4594828E4,1.550961E4,5.950379E2,2.985928E3,2.8807846E2,3.986147E3,8.45862E2,2.3264783E3,2.9532385E2,1.6210549E3,2.0211119E2,3.092129E3,3.03167E2,1.5622836E3,2.605568E3,1.874013E3,2.2720816E4,1.5155591E4,3.540187E2,1.22406235E2,4.7263165E2,2.7685674E3,2.1736069E2,2.7876526E2,9.313197E0,3.6613445E3,3.2480264E2,1.1216141E2,7.337006E2,2.137914E3,1.8856439E2,1.6857156E2,1.2675229E2,1.4385267E3,1.8252814E2,1.4906512E2,5.3046055E1,2.9968333E3,9.5295784E1,2.0072618E2,1.024408E2,6.237501E2,9.3853345E2,9.568372E2,1.648731E3,5.5489404E2,1.3191189E3,1.4149276E3,2.1305889E4,1.4118482E4,1.0371084E3,3.5133533E2,2.6834064E0,1.1749968E2,4.906551E0,1.2096935E2,3.516623E2,2.7385676E3,2.9999802E1,3.042042E1,1.8694026E2,8.748343E0,2.700169E2,4.3868237E0,4.926373E0,2.3445784E3,1.316766E3,3.7128372E1,2.876743E2,1.4101941E1,9.805946E1,5.722149E2,1.6148573E2,1.8034259E3,3.344881E2,1.0330524E2,8.525916E1,3.321615E1,1.3535541E2,1.1964902E2,7.1032667E0,1.3594305E3,7.909624E1,4.454879E1,1.3797935E2,1.3891618E2,1.014895E1,2.2290913E1,3.0755142E1,1.3021041E3,1.6947291E3,6.1586338E1,3.370945E1,1.1289819E2,8.7827995E1,7.524995E1,2.7190857E1,2.4479152E2,3.789586E2,4.1245E2,5.2608344E2,3.9355933E2,5.632779E2,5.0230054E2,1.1464304E3,1.525601E2,4.0233395E2,1.2357449E3,8.337397E1,4.0589822E2,1.00902936E3,8.993114E2,2.0406576E4,1.4041348E4,7.713514E1,8.66545E2,1.7056345E2,1.8450682E2,1.6682849E2,5.8997545E0,1.1159993E2,1.4931086E0,3.4134424E0,5.2706974E1,6.826238E1,2.5389455E2,9.776776E1,2.398435E3,3.4013257E2,2.1514626E1,8.485176E0,4.6565986E0,2.576382E1,1.5273752E2,3.4202747E1,6.821388E1,2.0180304E2,1.7430613E0,3.1833117E0,3.961439E2,1.9484346E3,7.044099E2,6.12356E2,3.9794207E0,3.3148952E1,5.9486485E1,2.281878E2,6.7156854E0,7.3862557E0,8.662448E0,8.939702E1,5.0735385E2,6.486103E1,5.9510662E1,1.0197506E2,1.3853472E3,4.1807874E2,6.1836292E1,2.7265182E2,9.839208E1,4.9131584E0,7.486687E1,1.0392295E1,9.116102E0,2.4100048E1,1.3165898E2,3.6964316E0,1.0548101E2,1.4168014E1,5.37342E0,1.7298467E0,4.698985E2,8.8953204E2,7.6758523E0,7.142039E1,3.7419094E1,7.129696E0,1.340528E2,3.9265623E0,2.6893528E1,1.1202265E2,2.9399662E0,7.2089834E0,1.3161596E1,9.129317E0,1.9481968E1,1.1273174E1,5.3301404E2,7.6909E2,1.2141338E3,4.8059528E2,8.16915E0,5.341719E1,1.1825938E1,2.188351E1,2.001491E1,9.288328E1,2.6900136E0,8.513798E1,9.7734585E0,6.5476494E1,1.883122E1,8.359637E0,8.495298E1,1.5983855E2,1.7349779E2,2.054608E2,1.8584346E2,2.2660655E2,2.2467848E2,3.0140494E2,1.6833469E2,2.2522464E2,4.464918E2,1.16786095E2,2.004155E2,3.0188504E2,3.2368152E2,8.2274884E2,6.004473E1,9.251538E1,3.9389502E2,8.438925E0,3.455441E2,8.902008E2,6.6451E1,1.6922976E1,1.17739655E2,2.881586E2,2.726891E2,7.363403E2,7.3477673E2,1.6453464E2,7.776771E2,1.9628898E4],"tree_param":{"num_deleted":"0","num_feature":"43","num_nodes":"249","size_leaf_vector":"1"}},{"base_weights":[8.2395645E-6,-1.3851893E0,1.0952883E0,-1.7299136E0,-4.896505E-1,-1.4396637E-2,1.2970157E0,-1.8017243E0,-1.3764442E0,-6.2805784E-1,-2.3436406E-1,-4.303849E-1,2.0911199E-1,4.1950437E-1,1.4459844E0,-1.8253942E0,-1.208978E0,-1.4460224E0,-6.5311587E-1,-6.940178E-1,-3.167393E-1,-1.3202007E-1,-1.0377197E0,-5.330564E-1,3.9217E-1,2.928836E-1,-6.43385E-1,3.7155274E-2,6.488287E-1,7.409114E-1,1.5085582E0,-1.8359972E0,-1.3643165E0,-6.879671E-1,-1.3374902E0,-1.4764051E0,-1.0541787E0,-7.034847E-1,7.78475E-1,-7.331836E-1,-2.5159264E-1,3.3791512E-1,-4.170811E-1,-4.899108E-2,-1.0682993E0,-1.590011E0,-2.9713067E-1,-3.947318E-1,-1.2220306E0,5.648493E-1,-9.427903E-2,3.4314552E-1,-1.2749519E0,-1.0603837E0,1.7603147E-1,-2.6988432E-1,2.4135976E-1,2.6463106E-1,8.717063E-1,3.4312835E-1,8.9314926E-1,8.7295663E-1,1.5479898E0,-1.8534492E0,-1.5955901E0,-1.3866463E0,5.6233715E-2,-7.758396E-1,2.1749747E-1,-1.6296017E0,-1.2313104E0,-1.4839336E0,-7.637506E-1,-4.8886424E-1,-1.1672605E0,-8.697516E-2,-6.6365725E-1,6.828278E-2,1.140563E-1,-6.8855864E-1,-1.0727934E0,3.7957644E-1,-3.3402982E-1,-4.547698E-1,4.5540366E-1,-5.372006E-1,9.334782E-3,2.0054118E-1,-2.7379316E-1,-6.6670024E-1,-1.5418884E0,-7.363807E-1,-1.7927502E0,-3.7022644E-1,8.292373E-1,-2.916872E-1,-1.4156573E0,-5.695406E-1,-1.4913682E0,6.465907E-1,-5.1105624E-1,-6.150752E-1,2.9082692E-1,7.791203E-2,5.468768E-1,-1.5586985E0,-7.2686374E-1,-1.5055609E0,-4.7809926E-1,3.6812752E-1,-3.4957063E-1,-5.4533297E-1,-9.0966426E-2,-6.963919E-2,4.8498532E-1,-1.5048719E-2,4.656231E-1,4.702707E-1,1.0472088E0,5.554567E-2,4.5181087E-1,4.9482724E-1,1.0478377E0,9.361024E-1,-6.182685E-2,9.747341E-1,1.5735275E0,-9.282692E-2,-6.378004E-2,-8.182859E-2,-6.8496995E-2,-7.0219256E-2,2.6041433E-2,-1.1386137E-2,-4.65314E-2,-1.3154446E-3,4.7985207E-2,-2.763218E-2,-8.2314126E-2,-6.755025E-2,-4.470901E-2,-7.558603E-2,-6.420951E-2,-1.52728725E-2,-6.891783E-2,2.3052467E-2,-3.3411663E-2,-6.3360974E-2,-3.583591E-2,-1.6771799E-2,-3.862023E-2,-4.519881E-2,3.7741136E-2,-3.9512835E-2,-2.5295958E-2,3.7780502E-3,-5.4290593E-2,-4.9636785E-2,2.8434386E-2,-3.6653887E-2,-1.136271E-2,-5.4241776E-2,8.960794E-3,-2.4265941E-2,2.754966E-2,-2.177658E-2,-4.7273602E-2,1.822717E-2,-1.0808457E-2,2.6963053E-3,3.7412085E-2,-2.2817269E-2,2.005762E-2,-3.6280062E-2,2.1832826E-2,-8.420413E-2,-2.3023864E-2,-4.2912673E-2,5.928564E-2,-9.2243604E-2,2.9916593E-3,5.8933068E-2,-2.0772504E-2,-1.2009374E-2,5.7859804E-2,-2.577549E-3,-2.7198393E-2,-2.9089022E-2,-8.5584365E-2,-3.829403E-2,1.2802563E-2,-8.089315E-2,1.0861478E-2,5.82065E-2,2.5664404E-2,3.478379E-2,-5.138547E-2,2.1565645E-3,-4.4052206E-2,3.5075087E-2,-5.8382866E-3,-9.588863E-3,1.3204047E-2,2.0916028E-2,5.0438613E-2,-3.478938E-2,-8.738276E-2,4.9491026E-3,-5.789898E-2,-1.4757338E-2,-8.803614E-2,-2.5965808E-2,5.9014183E-2,-1.4511733E-2,2.642112E-2,-3.7636116E-2,1.25381965E-2,-1.1279347E-2,-3.5640534E-2,-1.680164E-2,5.8327136E-3,-1.6363401E-2,7.110731E-3,2.8259173E-2,1.7725191E-3,-1.7927278E-2,1.1735063E-2,2.9046351E-2,5.63298E-3,1.0001152E-2,3.2426707E-2,3.3472396E-2,5.9749354E-2,-1.5215735E-2,1.4497933E-2,2.408425E-2,-4.225609E-2,6.9175125E-3,3.1979512E-2,3.499448E-2,5.8258045E-2,3.3024333E-2,5.211507E-2,-1.0265142E-2,5.25163E-2,3.213393E-2,5.581137E-2,5.8326364E-2,7.943759E-2],"categories":[],"categories_nodes":[],"categories_segments":[],"categories_sizes":[],"default_left":[0,0,0,0,0,0,0,0,0,0,0,0,0,0,0,0,0,0,0,0,0,0,0,0,0,0,0,0,0,0,0,0,0,0,0,0,0,0,0,0,0,0,0,0,0,0,0,0,0,0,0,0,0,0,0,0,0,0,0,0,0,0,0,0,0,0,0,0,0,0,0,0,0,0,0,0,0,0,0,0,0,0,0,0,0,0,0,0,0,0,0,0,0,0,0,0,0,0,0,0,0,0,0,0,0,0,0,0,0,0,0,0,0,0,0,0,0,0,0,0,0,0,0,0,0,0,0,0,0,0,0,0,0,0,0,0,0,0,0,0,0,0,0,0,0,0,0,0,0,0,0,0,0,0,0,0,0,0,0,0,0,0,0,0,0,0,0,0,0,0,0,0,0,0,0,0,0,0,0,0,0,0,0,0,0,0,0,0,0,0,0,0,0,0,0,0,0,0,0,0,0,0,0,0,0,0,0,0,0,0,0,0,0,0,0,0,0,0,0,0,0,0,0,0,0,0,0,0,0,0,0,0,0,0,0,0,0,0,0,0,0,0,0,0,0,0,0,0,0],"id":1,"left_children":[1,3,5,7,9,11,13,15,17,19,21,23,25,27,29,31,33,35,37,39,41,43,45,47,49,51,53,55,57,59,61,63,65,67,69,71,73,75,77,79,81,83,85,87,89,91,93,95,97,99,101,103,105,107,109,111,113,115,117,119,121,123,125,127,129,131,-1,133,135,137,139,141,143,145,147,-1,149,-1,151,153,155,157,159,161,163,165,167,169,171,173,175,177,179,181,183,185,187,189,191,193,195,197,199,201,203,205,207,209,211,213,215,217,219,221,223,225,227,229,231,233,235,237,239,241,243,245,247,-1,-1,-1,-1,-1,-1,-1,-1,-1,-1,-1,-1,-1,-1,-1,-1,-1,-1,-1,-1,-1,-1,-1,-1,-1,-1,-1,-1,-1,-1,-1,-1,-1,-1,-1,-1,-1,-1,-1,-1,-1,-1,-1,-1,-1,-1,-1,-1,-1,-1,-1,-1,-1,-1,-1,-1,-1,-1,-1,-1,-1,-1,-1,-1,-1,-1,-1,-1,-1,-1,-1,-1,-1,-1,-1,-1,-1,-1,-1,-1,-1,-1,-1,-1,-1,-1,-1,-1,-1,-1,-1,-1,-1,-1,-1,-1,-1,-1,-1,-1,-1,-1,-1,-1,-1,-1,-1,-1,-1,-1,-1,-1,-1,-1,-1,-1,-1,-1,-1,-1,-1,-1],"loss_changes":[9.214183E4,8.27793E3,7.5921055E3,4.890039E2,2.6326514E2,4.8524423E2,3.7508867E3,2.2354297E2,1.6381787E2,9.9034424E1,2.1548056E2,1.5425592E2,2.4263887E2,3.6528308E2,1.0812578E3,7.3125E1,4.0647095E1,3.398828E1,2.1393913E1,6.8913086E1,5.5772522E1,1.8086769E2,1.2067767E2,1.5410388E2,1.7104332E1,2.4408484E2,1.0408678E2,9.806672E1,2.2276672E2,1.20914795E2,5.63375E2,6.0484375E1,2.1104187E1,1.0105717E1,1.340625E1,1.3719727E1,1.3387192E1,1.0390625E1,3.8628569E0,5.477185E1,1.7079832E1,1.0740953E1,3.7641273E1,1.20030045E2,3.5018265E1,2.8003357E1,1.0825694E1,1.4185371E2,4.6729218E1,1.3518246E1,1.1016532E1,1.6188394E2,1.3836121E1,5.155493E1,1.056962E1,3.0742058E1,7.11986E1,5.3833267E1,1.1559216E2,1.7342766E1,8.864392E1,7.788617E1,3.0903906E2,2.278125E1,7.2873535E0,1.2539612E1,0E0,9.465294E0,2.16578E0,1.4144592E0,1.3663452E1,1.3256836E1,8.310545E0,6.8024454E0,7.2533417E0,0E0,9.4158325E0,0E0,4.5464325E0,5.9784058E1,6.4149475E0,1.0454213E1,1.2135067E1,6.226422E0,9.170412E0,2.3385391E1,1.3093308E1,8.140175E1,1.3886673E2,7.096401E0,1.2480423E1,9.032675E0,1.3263977E1,8.941742E0,3.1168342E0,7.446397E1,2.9545074E1,1.328054E1,4.1634857E1,9.04763E0,7.664516E0,4.1156197E0,5.3955E0,6.547046E1,1.0020505E2,8.982391E0,1.2471397E1,3.4634033E1,6.685528E0,8.1969185E0,7.01178E0,1.3003403E1,1.9372293E1,2.2612703E1,1.8972137E1,3.4516132E1,2.2610481E1,2.410421E1,6.3156006E1,1.3040647E1,1.6026413E1,2.0897598E1,4.169702E1,3.5464233E1,1.3678152E1,4.1915894E1,1.23984375E2,0E0,0E0,0E0,0E0,0E0,0E0,0E0,0E0,0E0,0E0,0E0,0E0,0E0,0E0,0E0,0E0,0E0,0E0,0E0,0E0,0E0,0E0,0E0,0E0,0E0,0E0,0E0,0E0,0E0,0E0,0E0,0E0,0E0,0E0,0E0,0E0,0E0,0E0,0E0,0E0,0E0,0E0,0E0,0E0,0E0,0E0,0E0,0E0,0E0,0E0,0E0,0E0,0E0,0E0,0E0,0E0,0E0,0E0,0E0,0E0,0E0,0E0,0E0,0E0,0E0,0E0,0E0,0E0,0E0,0E0,0E0,0E0,0E0,0E0,0E0,0E0,0E0,0E0,0E0,0E0,0E0,0E0,0E0,0E0,0E0,0E0,0E0,0E0,0E0,0E0,0E0,0E0,0E0,0E0,0E0,0E0,0E0,0E0,0E0,0E0,0E0,0E0,0E0,0E0,0E0,0E0,0E0,0E0,0E0,0E0,0E0,0E0,0E0,0E0,0E0,0E0,0E0,0E0,0E0,0E0,0E0,0E0],"parents":[2147483647,0,0,1,1,2,2,3,3,4,4,5,5,6,6,7,7,8,8,9,9,10,10,11,11,12,12,13,13,14,14,15,15,16,16,17,17,18,18,19,19,20,20,21,21,22,22,23,23,24,24,25,25,26,26,27,27,28,28,29,29,30,30,31,31,32,32,33,33,34,34,35,35,36,36,37,37,38,38,39,39,40,40,41,41,42,42,43,43,44,44,45,45,46,46,47,47,48,48,49,49,50,50,51,51,52,52,53,53,54,54,55,55,56,56,57,57,58,58,59,59,60,60,61,61,62,62,63,63,64,64,65,65,67,67,68,68,69,69,70,70,71,71,72,72,73,73,74,74,76,76,78,78,79,79,80,80,81,81,82,82,83,83,84,84,85,85,86,86,87,87,88,88,89,89,90,90,91,91,92,92,93,93,94,94,95,95,96,96,97,97,98,98,99,99,100,100,101,101,102,102,103,103,104,104,105,105,106,106,107,107,108,108,109,109,110,110,111,111,112,112,113,113,114,114,115,115,116,116,117,117,118,118,119,119,120,120,121,121,122,122,123,123,124,124,125,125,126,126],"right_children":[2,4,6,8,10,12,14,16,18,20,22,24,26,28,30,32,34,36,38,40,42,44,46,48,50,52,54,56,58,60,62,64,66,68,70,72,74,76,78,80,82,84,86,88,90,92,94,96,98,100,102,104,106,108,110,112,114,116,118,120,122,124,126,128,130,132,-1,134,136,138,140,142,144,146,148,-1,150,-1,152,154,156,158,160,162,164,166,168,170,172,174,176,178,180,182,184,186,188,190,192,194,196,198,200,202,204,206,208,210,212,214,216,218,220,222,224,226,228,230,232,234,236,238,240,242,244,246,248,-1,-1,-1,-1,-1,-1,-1,-1,-1,-1,-1,-1,-1,-1,-1,-1,-1,-1,-1,-1,-1,-1,-1,-1,-1,-1,-1,-1,-1,-1,-1,-1,-1,-1,-1,-1,-1,-1,-1,-1,-1,-1,-1,-1,-1,-1,-1,-1,-1,-1,-1,-1,-1,-1,-1,-1,-1,-1,-1,-1,-1,-1,-1,-1,-1,-1,-1,-1,-1,-1,-1,-1,-1,-1,-1,-1,-1,-1,-1,-1,-1,-1,-1,-1,-1,-1,-1,-1,-1,-1,-1,-1,-1,-1,-1,-1,-1,-1,-1,-1,-1,-1,-1,-1,-1,-1,-1,-1,-1,-1,-1,-1,-1,-1,-1,-1,-1,-1,-1,-1,-1,-1],"split_conditions":[-2.3982656E-1,-6.7183834E-1,-9.582262E-2,2.1660961E-1,-9.582262E-2,-9.582262E-2,-9.582262E-2,1.5097679E0,-9.582262E-2,5.786311E-1,7.3372245E-1,5.61995E-1,5.7317567E-1,-9.582262E-2,-9.582262E-2,-9.582262E-2,1.3821602E-2,8.279049E-1,1.3442286E0,1.643833E0,3.331341E-1,4.7694343E-1,4.9593234E-1,4.6315283E-1,5.468029E-1,6.128028E-1,5.807933E-1,-9.582262E-2,-9.582262E-2,-9.582262E-2,-9.582262E-2,3.5823232E-1,4.2102617E-1,6.047074E1,5.68577E-1,1.4652158E0,5.417115E1,-1.0704639E0,3.8278468E-2,6.128028E-1,-6.840363E-1,4.4756353E-1,1.5842087E0,3.1878224E-1,-9.582262E-2,-9.582262E-2,9.3693787E-1,5.673758E-1,-9.582262E-2,5.293503E-2,9.086886E-1,-9.582262E-2,2.1860895E-1,7.200197E-1,7.173378E-1,-9.582262E-2,-9.582262E-2,-9.582262E-2,-9.582262E-2,-9.582262E-2,-9.582262E-2,5.225068E-1,-9.582262E-2,6.904921E-1,8.055385E-1,5.807933E-1,5.6233715E-2,-1.2352017E0,1.7186482E-1,-5.7954793E0,-9.582262E-2,6.682565E1,2.6044664E-1,3.4897366E-1,1.2568102E0,-8.697516E-2,-6.2058395E-1,6.828278E-2,1.2755313E0,-3.838305E-1,-1.5264069E0,1.418578E0,-1.1672387E0,4.6232918E-1,5.073778E-2,7.079294E-1,7.173816E-1,3.7740442E-1,5.1797616E-1,3.5452422E-1,9.8370224E-1,1.0549576E0,5.7890385E-1,-4.0577692E-1,9.748085E-1,1.2471107E0,1.040871E0,4.450517E-1,6.846249E1,3.9129862E-1,6.986365E-1,-9.582262E-2,7.3372245E-1,-9.582262E-2,5.2823573E-1,7.245551E-1,-6.62967E-1,-9.582262E-2,1.0997225E0,6.4259666E-1,8.649464E-1,4.9803026E-2,-9.582262E-2,-9.582262E-2,4.5481026E-1,-9.582262E-2,3.4897366E-1,-9.582262E-2,-9.582262E-2,-4.5838115E-1,5.673758E-1,-9.582262E-2,-9.582262E-2,-9.582262E-2,2.759635E0,-9.582262E-2,-9.582262E-2,-9.282692E-2,-6.378004E-2,-8.182859E-2,-6.8496995E-2,-7.0219256E-2,2.6041433E-2,-1.1386137E-2,-4.65314E-2,-1.3154446E-3,4.7985207E-2,-2.763218E-2,-8.2314126E-2,-6.755025E-2,-4.470901E-2,-7.558603E-2,-6.420951E-2,-1.52728725E-2,-6.891783E-2,2.3052467E-2,-3.3411663E-2,-6.3360974E-2,-3.583591E-2,-1.6771799E-2,-3.862023E-2,-4.519881E-2,3.7741136E-2,-3.9512835E-2,-2.5295958E-2,3.7780502E-3,-5.4290593E-2,-4.9636785E-2,2.8434386E-2,-3.6653887E-2,-1.136271E-2,-5.4241776E-2,8.960794E-3,-2.4265941E-2,2.754966E-2,-2.177658E-2,-4.7273602E-2,1.822717E-2,-1.0808457E-2,2.6963053E-3,3.7412085E-2,-2.2817269E-2,2.005762E-2,-3.6280062E-2,2.1832826E-2,-8.420413E-2,-2.3023864E-2,-4.2912673E-2,5.928564E-2,-9.2243604E-2,2.9916593E-3,5.8933068E-2,-2.0772504E-2,-1.2009374E-2,5.7859804E-2,-2.577549E-3,-2.7198393E-2,-2.9089022E-2,-8.5584365E-2,-3.829403E-2,1.2802563E-2,-8.089315E-2,1.0861478E-2,5.82065E-2,2.5664404E-2,3.478379E-2,-5.138547E-2,2.1565645E-3,-4.4052206E-2,3.5075087E-2,-5.8382866E-3,-9.588863E-3,1.3204047E-2,2.0916028E-2,5.0438613E-2,-3.478938E-2,-8.738276E-2,4.9491026E-3,-5.789898E-2,-1.4757338E-2,-8.803614E-2,-2.5965808E-2,5.9014183E-2,-1.4511733E-2,2.642112E-2,-3.7636116E-2,1.25381965E-2,-1.1279347E-2,-3.5640534E-2,-1.680164E-2,5.8327136E-3,-1.6363401E-2,7.110731E-3,2.8259173E-2,1.7725191E-3,-1.7927278E-2,1.1735063E-2,2.9046351E-2,5.63298E-3,1.0001152E-2,3.2426707E-2,3.3472396E-2,5.9749354E-2,-1.5215735E-2,1.4497933E-2,2.408425E-2,-4.225609E-2,6.9175125E-3,3.1979512E-2,3.499448E-2,5.8258045E-2,3.3024333E-2,5.211507E-2,-1.0265142E-2,5.25163E-2,3.213393E-2,5.581137E-2,5.8326364E-2,7.943759E-2],"split_indices":[37,37,4,40,25,21,25,15,25,30,40,26,40,22,24,25,34,39,39,33,40,34,3,40,40,34,3,21,24,22,22,34,36,2,13,35,2,39,34,34,35,26,39,40,24,24,6,34,25,34,16,25,1,38,9,23,23,23,21,23,23,40,21,30,15,3,0,5,40,41,25,2,0,40,39,0,10,0,28,37,28,15,28,27,36,32,7,39,18,30,1,40,5,19,27,38,15,20,2,10,6,23,40,24,5,14,17,25,14,28,9,34,24,24,40,21,40,23,23,39,34,21,21,23,28,23,23,0,0,0,0,0,0,0,0,0,0,0,0,0,0,0,0,0,0,0,0,0,0,0,0,0,0,0,0,0,0,0,0,0,0,0,0,0,0,0,0,0,0,0,0,0,0,0,0,0,0,0,0,0,0,0,0,0,0,0,0,0,0,0,0,0,0,0,0,0,0,0,0,0,0,0,0,0,0,0,0,0,0,0,0,0,0,0,0,0,0,0,0,0,0,0,0,0,0,0,0,0,0,0,0,0,0,0,0,0,0,0,0,0,0,0,0,0,0,0,0,0,0],"split_type":[0,0,0,0,0,0,0,0,0,0,0,0,0,0,0,0,0,0,0,0,0,0,0,0,0,0,0,0,0,0,0,0,0,0,0,0,0,0,0,0,0,0,0,0,0,0,0,0,0,0,0,0,0,0,0,0,0,0,0,0,0,0,0,0,0,0,0,0,0,0,0,0,0,0,0,0,0,0,0,0,0,0,0,0,0,0,0,0,0,0,0,0,0,0,0,0,0,0,0,0,0,0,0,0,0,0,0,0,0,0,0,0,0,0,0,0,0,0,0,0,0,0,0,0,0,0,0,0,0,0,0,0,0,0,0,0,0,0,0,0,0,0,0,0,0,0,0,0,0,0,0,0,0,0,0,0,0,0,0,0,0,0,0,0,0,0,0,0,0,0,0,0,0,0,0,0,0,0,0,0,0,0,0,0,0,0,0,0,0,0,0,0,0,0,0,0,0,0,0,0,0,0,0,0,0,0,0,0,0,0,0,0,0,0,0,0,0,0,0,0,0,0,0,0,0,0,0,0,0,0,0,0,0,0,0,0,0,0,0,0,0,0,0,0,0,0,0,0,0],"sum_hessian":[6.073033E4,2.6815975E4,3.391435E4,1.936195E4,7.454024E3,5.2170044E3,2.8697348E4,1.6089182E4,3.2727686E3,4.832533E3,2.6214905E3,1.823056E3,3.3939487E3,4.165277E3,2.4532072E4,1.5469369E4,6.198117E2,2.984669E3,2.880995E2,3.9866423E3,8.458909E2,2.3262952E3,2.9519547E2,1.6210662E3,2.0198984E2,3.0908765E3,3.0307217E2,1.562052E3,2.6032249E3,2.000749E3,2.2531322E4,1.5118714E4,3.506562E2,1.23890526E2,4.9592117E2,2.7673284E3,2.1734055E2,2.787989E2,9.300617E0,3.6618215E3,3.2482068E2,1.121074E2,7.3378357E2,2.1377705E3,1.8852461E2,1.6843718E2,1.2675827E2,1.3513334E3,2.697328E2,1.4895334E2,5.3036503E1,2.9956235E3,9.525302E1,2.0066187E2,1.0241031E2,6.237967E2,9.382553E2,9.565341E2,1.6466908E3,5.546792E2,1.44607E3,1.3175073E3,2.1213814E4,1.4089221E4,1.0294923E3,3.479772E2,2.6789794E0,1.13061424E2,1.0829099E1,1.283819E2,3.6753925E2,2.737329E3,2.999933E1,3.7115776E1,1.8022476E2,8.741194E0,2.7005768E2,4.377013E0,4.923604E0,3.2392136E3,4.2260806E2,3.7107536E1,2.8771313E2,1.4100668E1,9.800673E1,5.7230725E2,1.6147633E2,1.0132084E3,1.1245621E3,1.0331891E2,8.52057E1,3.3215603E1,1.3522159E2,1.1966397E2,7.094297E0,1.228612E3,1.2272123E2,7.971994E1,1.9001285E2,1.3880661E2,1.0146737E1,2.2292368E1,3.0744133E1,1.3019822E3,1.6936412E3,6.1546413E1,3.370661E1,1.12820755E2,8.784111E1,7.521901E1,2.7191294E1,2.4482869E2,3.78968E2,4.1245377E2,5.258016E2,4.003598E2,5.561743E2,5.0203665E2,1.1446542E3,1.525447E2,4.0213446E2,4.0567014E2,1.0403998E3,1.2341384E3,8.3368935E1,9.0640753E2,2.0307408E4,1.4012102E4,7.711958E1,8.659668E2,1.6352548E2,3.450323E2,2.9449258E0,2.5441704E1,8.761972E1,8.877497E0,1.9516025E0,2.478718E0,1.2590318E2,2.6901932E2,9.851993E1,2.3972686E3,3.4006067E2,1.8042545E1,1.1956785E1,5.6458316E0,3.1469944E1,1.4601642E2,3.4208344E1,6.8225136E1,2.0183255E2,1.7432314E0,3.1803725E0,2.0785176E3,1.160696E3,4.683421E0,4.1792462E2,3.9795926E0,3.3127945E1,5.9495945E1,2.282172E2,6.715527E0,7.385141E0,8.66408E0,8.934265E1,4.5985855E2,1.1244868E2,6.2465515E1,9.901082E1,8.0012085E2,2.1308754E2,8.8540967E2,2.391525E2,9.840792E1,4.910982E0,7.481147E1,1.0394234E1,3.175558E1,1.4600226E0,1.3152531E2,3.696264E0,2.6837535E0,1.1698022E2,1.7278061E0,5.366491E0,6.3007367E2,5.9853845E2,3.292924E1,8.979199E1,6.4462074E1,1.5257865E1,1.7696451E2,1.3048338E1,2.6845934E1,1.1196067E2,2.938009E0,7.2087283E0,6.656653E0,1.56357155E1,1.495498E1,1.5789153E1,5.317071E2,7.7027515E2,1.3263835E3,3.672577E2,1.1897268E1,4.9649143E1,1.1825014E1,2.1881598E1,2.0017977E1,9.280278E1,8.638108E1,1.4600307E0,1.4569329E1,6.0649685E1,1.6115303E1,1.1075991E1,8.496386E1,1.5986484E2,1.7352646E2,2.0544151E2,1.8587373E2,2.2658005E2,4.4598035E2,7.982121E1,1.6836342E2,2.3199638E2,4.187378E2,1.3743652E2,2.0038092E2,3.0165573E2,3.234246E2,8.2122955E2,6.0054108E1,9.249059E1,3.9369455E2,8.439934E0,1.177263E2,2.8794382E2,2.641045E2,7.762953E2,3.4527487E2,8.888635E2,7.456491E1,8.804027E0,2.724845E2,6.3392303E2,7.350296E2,1.9572379E4],"tree_param":{"num_deleted":"0","num_feature":"43","num_nodes":"249","size_leaf_vector":"1"}},{"base_weights":[5.8950636E-6,-1.3208078E0,1.0448812E0,-1.6514472E0,-4.6546862E-1,-1.3762435E-2,1.238079E0,-1.7206361E0,-1.3116359E0,-5.97024E-1,-2.228093E-1,-4.0926522E-1,1.9876182E-1,3.9904758E-1,1.3810964E0,-1.7429575E0,-1.139074E0,-1.3782166E0,-6.211654E-1,-6.5973455E-1,-3.0111614E-1,-1.2549566E-1,-9.8836756E-1,-5.06894E-1,3.732628E-1,2.9659423E-1,-4.6714804E-1,6.952094E-1,1.3027728E-1,7.05309E-1,1.4412888E0,-1.7532557E0,-1.2997546E0,-1.2637233E0,-6.727058E-1,-1.4073061E0,-1.0036567E0,-6.692287E-1,7.474471E-1,-6.969715E-1,-2.3926802E-1,3.0619338E-1,-3.9886296E-1,-4.6527967E-2,-1.0176289E0,-1.5175759E0,-2.8165737E-1,-4.0171543E-1,-1.3319855E0,5.377966E-1,-8.983852E-2,4.932611E-1,-1.3170695E-1,-8.286596E-1,3.365508E-1,3.099175E-1,9.5075226E-1,-3.489352E-1,3.1315354E-1,3.261475E-1,8.5067827E-1,8.3132255E-1,1.4792625E0,-1.770128E0,-1.5225267E0,-1.3209887E0,5.4315645E-2,-1.5454948E0,-1.160852E0,-7.6168174E-1,3.075113E-1,-1.4144902E0,-7.288509E-1,-3.9847973E-1,-1.0996362E0,-8.342768E-2,-6.309779E-1,6.575092E-2,1.07227184E-1,-6.544931E-1,-1.0204439E0,6.128969E-1,-2.9440817E-1,-2.9225236E-1,4.4424516E-1,-6.1767054E-1,-1.8662636E-1,5.1128797E-2,-5.7159436E-1,-6.338427E-1,-1.4717168E0,-6.9957966E-1,-1.7127542E0,-3.5141397E-1,7.949486E-1,-3.3143803E-1,-1.5958201E0,-4.9958843E-1,-1.5963763E0,5.916559E-1,-9.223909E-1,-5.8635443E-1,2.7735585E-1,6.5835947E-1,1.1796731E-1,-7.1083307E-3,-1.2166225E0,-1.2610998E0,-4.205991E-1,1.0320916E0,1.3514362E-1,4.589698E-1,-5.1183835E-2,1.0307499E0,4.6059054E-1,-2.1173586E-1,-6.7531216E-1,3.3756405E-1,-1.0998802E0,1.585577E-1,5.0464123E-1,4.706233E-1,9.985786E-1,8.9155114E-1,-5.8235906E-2,9.284611E-1,1.5038834E0,-8.8654995E-2,-6.0771376E-2,-7.8065395E-2,-6.589266E-2,-5.6341495E-2,-7.6397225E-2,-8.6921394E-2,-6.8579674E-2,-6.378385E-2,-4.285149E-2,2.1936907E-2,-4.1600462E-2,2.789456E-2,-2.4675103E-2,-7.205763E-2,-6.1152577E-2,-1.8648295E-2,-7.4917294E-2,3.4705646E-2,-3.071223E-2,-6.435495E-2,-4.4479053E-2,-1.5945105E-2,-3.6722094E-2,-4.3789487E-2,3.635117E-2,-3.7564877E-2,-2.4036633E-2,3.6223189E-3,-5.1642466E-2,-3.3035286E-2,4.5898058E-2,-1.0650891E-2,-3.4999333E-2,-3.742262E-2,4.9745645E-2,-2.8619116E-2,2.5876865E-2,-2.23316E-2,-4.137696E-2,-1.9972427E-2,1.0384637E-2,-6.434925E-3,2.1405816E-2,-6.3420065E-2,-1.2934725E-2,-3.744068E-2,-3.9357427E-3,-8.457687E-2,-3.8383447E-2,6.212881E-3,-5.0201684E-2,-8.814115E-2,2.8740454E-3,-1.2405881E-2,-5.26887E-2,-1.1626272E-2,5.5559464E-2,-3.1649355E-2,-8.582182E-3,-2.5451967E-2,-8.522612E-2,-5.6763526E-2,-1.2000635E-2,-8.489077E-2,1.4287139E-3,5.586787E-2,2.275529E-2,-6.4694956E-2,1.1990418E-2,-4.583335E-2,-3.347997E-3,-1.723956E-3,3.87996E-2,1.9353038E-2,4.110977E-2,-9.820784E-3,3.9807133E-2,-2.6237404E-2,6.633345E-3,-7.4834436E-2,-3.5316803E-2,-9.554381E-3,-7.784505E-2,-1.043571E-3,-2.7843086E-2,-2.8008161E-2,6.1280277E-2,1.5710255E-2,-1.8027592E-2,1.5885731E-2,4.4780917E-2,-1.4789171E-2,1.08504025E-2,4.573084E-2,5.9430957E-2,1.0681384E-2,5.1474642E-2,3.2151386E-3,-3.0121446E-2,2.5512649E-2,-3.5163358E-2,2.6274819E-2,7.5907405E-3,-6.4167835E-2,2.4131194E-3,1.0104618E-2,-4.223866E-2,3.3280615E-2,1.2428298E-2,6.575428E-3,3.0424347E-2,3.3307742E-2,5.5543352E-2,3.1419583E-2,4.9655315E-2,-1.3042732E-2,3.5423826E-2,3.0571861E-2,5.31896E-2,5.560909E-2,7.592865E-2],"categories":[],"categories_nodes":[],"categories_segments":[],"categories_sizes":[],"default_left":[0,0,0,0,0,0,0,0,0,0,0,0,0,0,0,0,0,0,0,0,0,0,0,0,0,0,0,0,0,0,0,0,0,0,0,0,0,0,0,0,0,0,0,0,0,0,0,0,0,0,0,0,0,0,0,0,0,0,0,0,0,0,0,0,0,0,0,0,0,0,0,0,0,0,0,0,0,0,0,0,0,0,0,0,0,0,0,0,0,0,0,0,0,0,0,0,0,0,0,0,0,0,0,0,0,0,0,0,0,0,0,0,0,0,0,0,0,0,0,0,0,0,0,0,0,0,0,0,0,0,0,0,0,0,0,0,0,0,0,0,0,0,0,0,0,0,0,0,0,0,0,0,0,0,0,0,0,0,0,0,0,0,0,0,0,0,0,0,0,0,0,0,0,0,0,0,0,0,0,0,0,0,0,0,0,0,0,0,0,0,0,0,0,0,0,0,0,0,0,0,0,0,0,0,0,0,0,0,0,0,0,0,0,0,0,0,0,0,0,0,0,0,0,0,0,0,0,0,0,0,0,0,0,0,0,0,0,0,0,0,0,0,0,0,0,0,0,0,0],"id":2,"left_children":[1,3,5,7,9,11,13,15,17,19,21,23,25,27,29,31,33,35,37,39,41,43,45,47,49,51,53,55,57,59,61,63,65,67,69,71,73,75,77,79,81,83,85,87,89,91,93,95,97,99,101,103,105,107,109,111,113,115,117,119,121,123,125,127,129,131,-1,133,135,137,139,141,143,145,147,-1,149,-1,151,153,155,157,159,161,163,165,167,169,171,173,175,177,179,181,183,185,187,189,191,193,195,197,199,201,203,205,207,209,211,213,215,217,219,221,223,225,227,229,231,233,235,237,239,241,243,245,247,-1,-1,-1,-1,-1,-1,-1,-1,-1,-1,-1,-1,-1,-1,-1,-1,-1,-1,-1,-1,-1,-1,-1,-1,-1,-1,-1,-1,-1,-1,-1,-1,-1,-1,-1,-1,-1,-1,-1,-1,-1,-1,-1,-1,-1,-1,-1,-1,-1,-1,-1,-1,-1,-1,-1,-1,-1,-1,-1,-1,-1,-1,-1,-1,-1,-1,-1,-1,-1,-1,-1,-1,-1,-1,-1,-1,-1,-1,-1,-1,-1,-1,-1,-1,-1,-1,-1,-1,-1,-1,-1,-1,-1,-1,-1,-1,-1,-1,-1,-1,-1,-1,-1,-1,-1,-1,-1,-1,-1,-1,-1,-1,-1,-1,-1,-1,-1,-1,-1,-1,-1,-1],"loss_changes":[8.349544E4,7.5563594E3,6.9086562E3,4.5083984E2,2.3773059E2,4.3834314E2,3.4271875E3,2.0582031E2,1.4920996E2,8.9449585E1,1.9514201E2,1.394461E2,2.2113565E2,3.3115826E2,9.9171875E2,6.8078125E1,3.3715393E1,3.101709E1,1.9504517E1,6.2233032E1,5.038069E1,1.638605E2,1.10071075E2,1.4014154E2,1.5498135E1,2.4925305E2,1.2664416E2,1.9461438E2,1.914058E2,1.098457E2,5.178008E2,5.59375E1,1.9365845E1,1.1773071E1,1.1357975E1,1.2418457E1,1.2223282E1,9.636124E0,3.5922937E0,4.9631958E1,1.5487558E1,9.873694E0,3.377108E1,1.096809E2,3.203E1,2.5738037E1,9.872523E0,1.2024582E2,3.9442932E1,1.2323029E1,1.0009866E1,1.2555356E2,1.2594114E2,5.245665E1,1.8863014E1,4.2591095E1,4.617639E1,2.6876366E1,5.4885284E1,1.6532078E1,8.067554E1,7.053479E1,2.8465625E2,2.0972656E1,6.145508E0,1.2391785E1,0E0,1.7142639E0,1.1008636E1,1.0260765E1,2.5468826E0,1.2168945E1,7.923952E0,7.8304434E0,6.241272E0,0E0,8.513809E0,0E0,4.2416677E0,5.411389E1,5.811493E0,8.424616E0,9.973154E0,1.4080329E1,7.4664345E0,1.2511658E1,3.1287971E1,1.2235373E2,7.28077E1,6.595566E0,1.1992783E1,8.700766E0,1.211319E1,8.492464E0,2.8836284E0,6.544615E1,8.551468E0,7.240698E0,2.284729E1,9.902786E0,2.7791114E0,3.9331617E0,4.9602227E0,6.226172E1,1.3249039E2,6.061116E1,1.265918E1,4.5685883E1,8.484982E0,1.00253525E1,9.5519495E0,3.4250023E1,1.5281506E1,1.764978E1,2.3486938E1,4.6010788E1,6.262306E0,5.4180542E1,5.765213E0,1.2744922E1,1.0900673E1,1.8915138E1,3.801709E1,3.2306335E1,1.32903385E1,3.818347E1,1.1448047E2,0E0,0E0,0E0,0E0,0E0,0E0,0E0,0E0,0E0,0E0,0E0,0E0,0E0,0E0,0E0,0E0,0E0,0E0,0E0,0E0,0E0,0E0,0E0,0E0,0E0,0E0,0E0,0E0,0E0,0E0,0E0,0E0,0E0,0E0,0E0,0E0,0E0,0E0,0E0,0E0,0E0,0E0,0E0,0E0,0E0,0E0,0E0,0E0,0E0,0E0,0E0,0E0,0E0,0E0,0E0,0E0,0E0,0E0,0E0,0E0,0E0,0E0,0E0,0E0,0E0,0E0,0E0,0E0,0E0,0E0,0E0,0E0,0E0,0E0,0E0,0E0,0E0,0E0,0E0,0E0,0E0,0E0,0E0,0E0,0E0,0E0,0E0,0E0,0E0,0E0,0E0,0E0,0E0,0E0,0E0,0E0,0E0,0E0,0E0,0E0,0E0,0E0,0E0,0E0,0E0,0E0,0E0,0E0,0E0,0E0,0E0,0E0,0E0,0E0,0E0,0E0,0E0,0E0,0E0,0E0,0E0,0E0],"parents":[2147483647,0,0,1,1,2,2,3,3,4,4,5,5,6,6,7,7,8,8,9,9,10,10,11,11,12,12,13,13,14,14,15,15,16,16,17,17,18,18,19,19,20,20,21,21,22,22,23,23,24,24,25,25,26,26,27,27,28,28,29,29,30,30,31,31,32,32,33,33,34,34,35,35,36,36,37,37,38,38,39,39,40,40,41,41,42,42,43,43,44,44,45,45,46,46,47,47,48,48,49,49,50,50,51,51,52,52,53,53,54,54,55,55,56,56,57,57,58,58,59,59,60,60,61,61,62,62,63,63,64,64,65,65,67,67,68,68,69,69,70,70,71,71,72,72,73,73,74,74,76,76,78,78,79,79,80,80,81,81,82,82,83,83,84,84,85,85,86,86,87,87,88,88,89,89,90,90,91,91,92,92,93,93,94,94,95,95,96,96,97,97,98,98,99,99,100,100,101,101,102,102,103,103,104,104,105,105,106,106,107,107,108,108,109,109,110,110,111,111,112,112,113,113,114,114,115,115,116,116,117,117,118,118,119,119,120,120,121,121,122,122,123,123,124,124,125,125,126,126],"right_children":[2,4,6,8,10,12,14,16,18,20,22,24,26,28,30,32,34,36,38,40,42,44,46,48,50,52,54,56,58,60,62,64,66,68,70,72,74,76,78,80,82,84,86,88,90,92,94,96,98,100,102,104,106,108,110,112,114,116,118,120,122,124,126,128,130,132,-1,134,136,138,140,142,144,146,148,-1,150,-1,152,154,156,158,160,162,164,166,168,170,172,174,176,178,180,182,184,186,188,190,192,194,196,198,200,202,204,206,208,210,212,214,216,218,220,222,224,226,228,230,232,234,236,238,240,242,244,246,248,-1,-1,-1,-1,-1,-1,-1,-1,-1,-1,-1,-1,-1,-1,-1,-1,-1,-1,-1,-1,-1,-1,-1,-1,-1,-1,-1,-1,-1,-1,-1,-1,-1,-1,-1,-1,-1,-1,-1,-1,-1,-1,-1,-1,-1,-1,-1,-1,-1,-1,-1,-1,-1,-1,-1,-1,-1,-1,-1,-1,-1,-1,-1,-1,-1,-1,-1,-1,-1,-1,-1,-1,-1,-1,-1,-1,-1,-1,-1,-1,-1,-1,-1,-1,-1,-1,-1,-1,-1,-1,-1,-1,-1,-1,-1,-1,-1,-1,-1,-1,-1,-1,-1,-1,-1,-1,-1,-1,-1,-1,-1,-1,-1,-1,-1,-1,-1,-1,-1,-1,-1,-1],"split_conditions":[-2.3982656E-1,-6.7183834E-1,-9.582262E-2,2.1660961E-1,-9.582262E-2,-9.582262E-2,-9.582262E-2,1.5551333E0,-9.582262E-2,5.786311E-1,7.3372245E-1,5.61995E-1,5.0168365E-1,7.8874207E-1,-9.582262E-2,-9.582262E-2,1.6854587E0,8.279049E-1,1.3442286E0,1.643833E0,3.3827168E-1,4.7694343E-1,4.9593234E-1,5.594165E-1,5.468029E-1,1.8946847E-1,5.446002E-1,4.8181318E-2,4.8181318E-2,-9.582262E-2,-9.582262E-2,3.5823232E-1,4.2102617E-1,5.519548E-1,6.047074E1,1.4652158E0,5.304152E1,-1.0704639E0,3.8278468E-2,6.128028E-1,-7.9920393E-1,-5.278344E-1,1.0267788E0,3.9016265E-1,-9.582262E-2,-9.582262E-2,9.3693787E-1,7.8558505E-1,-9.582262E-2,1.3894169E-1,9.086886E-1,2.8734967E-1,6.128028E-1,7.200197E-1,5.7317567E-1,4.6315283E-1,3.4347793E-1,2.1664572E-1,6.6687787E-1,-1.8760829E-1,-9.582262E-2,5.225068E-1,-9.582262E-2,6.904921E-1,8.055385E-1,1.7340548E-1,5.4315645E-2,4.4509324E-1,-9.582262E-2,-1.3766711E0,1.0486203E-1,6.682565E1,8.1866974E-1,3.6018652E-1,9.9960506E-1,-8.342768E-2,-6.2058395E-1,6.575092E-2,1.2755313E0,-3.838305E-1,-1.5264069E0,1.5097679E0,3.0646747E-1,1.3663303E0,4.5806486E-2,6.449517E-1,1.0955576E0,3.0838415E-1,1.3575059E-1,6.2554832E1,5.036275E-1,6.9302075E-2,5.7890385E-1,6.2419707E-1,9.748085E-1,-9.582262E-2,8.261733E-2,4.4737515E-1,4.318422E-1,3.9129862E-1,4.032981E-2,4.1257016E-2,3.0042343E0,-9.582262E-2,1.7583959E-1,4.8181318E-2,2.0201625E-1,-9.582262E-2,-5.74624E-1,2.221294E-1,7.173378E-1,7.9208976E-1,4.450517E-1,4.8019314E-1,1.3886759E0,3.9949164E-1,-1.0941527E0,1.0919639E0,1.2423425E0,5.673758E-1,3.0592185E-1,-9.582262E-2,-9.582262E-2,-9.582262E-2,1.6082624E0,-9.582262E-2,-9.582262E-2,-8.8654995E-2,-6.0771376E-2,-7.8065395E-2,-6.589266E-2,-5.6341495E-2,-7.6397225E-2,-8.6921394E-2,-6.8579674E-2,-6.378385E-2,-4.285149E-2,2.1936907E-2,-4.1600462E-2,2.789456E-2,-2.4675103E-2,-7.205763E-2,-6.1152577E-2,-1.8648295E-2,-7.4917294E-2,3.4705646E-2,-3.071223E-2,-6.435495E-2,-4.4479053E-2,-1.5945105E-2,-3.6722094E-2,-4.3789487E-2,3.635117E-2,-3.7564877E-2,-2.4036633E-2,3.6223189E-3,-5.1642466E-2,-3.3035286E-2,4.5898058E-2,-1.0650891E-2,-3.4999333E-2,-3.742262E-2,4.9745645E-2,-2.8619116E-2,2.5876865E-2,-2.23316E-2,-4.137696E-2,-1.9972427E-2,1.0384637E-2,-6.434925E-3,2.1405816E-2,-6.3420065E-2,-1.2934725E-2,-3.744068E-2,-3.9357427E-3,-8.457687E-2,-3.8383447E-2,6.212881E-3,-5.0201684E-2,-8.814115E-2,2.8740454E-3,-1.2405881E-2,-5.26887E-2,-1.1626272E-2,5.5559464E-2,-3.1649355E-2,-8.582182E-3,-2.5451967E-2,-8.522612E-2,-5.6763526E-2,-1.2000635E-2,-8.489077E-2,1.4287139E-3,5.586787E-2,2.275529E-2,-6.4694956E-2,1.1990418E-2,-4.583335E-2,-3.347997E-3,-1.723956E-3,3.87996E-2,1.9353038E-2,4.110977E-2,-9.820784E-3,3.9807133E-2,-2.6237404E-2,6.633345E-3,-7.4834436E-2,-3.5316803E-2,-9.554381E-3,-7.784505E-2,-1.043571E-3,-2.7843086E-2,-2.8008161E-2,6.1280277E-2,1.5710255E-2,-1.8027592E-2,1.5885731E-2,4.4780917E-2,-1.4789171E-2,1.08504025E-2,4.573084E-2,5.9430957E-2,1.0681384E-2,5.1474642E-2,3.2151386E-3,-3.0121446E-2,2.5512649E-2,-3.5163358E-2,2.6274819E-2,7.5907405E-3,-6.4167835E-2,2.4131194E-3,1.0104618E-2,-4.223866E-2,3.3280615E-2,1.2428298E-2,6.575428E-3,3.0424347E-2,3.3307742E-2,5.5543352E-2,3.1419583E-2,4.9655315E-2,-1.3042732E-2,3.5423826E-2,3.0571861E-2,5.31896E-2,5.560909E-2,7.592865E-2],"split_indices":[37,37,4,40,25,21,25,15,25,30,40,26,40,38,24,25,33,39,39,33,40,34,3,40,40,34,3,37,37,22,22,34,36,13,2,35,2,39,34,34,3,37,28,32,24,24,6,34,25,34,16,40,34,38,40,40,40,34,34,27,23,40,21,30,15,30,0,34,25,39,32,2,5,40,27,0,10,0,28,37,28,15,3,28,36,40,19,27,5,2,12,32,5,21,27,22,15,28,16,10,1,34,20,25,36,37,1,25,6,29,9,30,20,37,20,40,19,38,33,34,40,21,21,23,17,23,23,0,0,0,0,0,0,0,0,0,0,0,0,0,0,0,0,0,0,0,0,0,0,0,0,0,0,0,0,0,0,0,0,0,0,0,0,0,0,0,0,0,0,0,0,0,0,0,0,0,0,0,0,0,0,0,0,0,0,0,0,0,0,0,0,0,0,0,0,0,0,0,0,0,0,0,0,0,0,0,0,0,0,0,0,0,0,0,0,0,0,0,0,0,0,0,0,0,0,0,0,0,0,0,0,0,0,0,0,0,0,0,0,0,0,0,0,0,0,0,0,0,0],"split_type":[0,0,0,0,0,0,0,0,0,0,0,0,0,0,0,0,0,0,0,0,0,0,0,0,0,0,0,0,0,0,0,0,0,0,0,0,0,0,0,0,0,0,0,0,0,0,0,0,0,0,0,0,0,0,0,0,0,0,0,0,0,0,0,0,0,0,0,0,0,0,0,0,0,0,0,0,0,0,0,0,0,0,0,0,0,0,0,0,0,0,0,0,0,0,0,0,0,0,0,0,0,0,0,0,0,0,0,0,0,0,0,0,0,0,0,0,0,0,0,0,0,0,0,0,0,0,0,0,0,0,0,0,0,0,0,0,0,0,0,0,0,0,0,0,0,0,0,0,0,0,0,0,0,0,0,0,0,0,0,0,0,0,0,0,0,0,0,0,0,0,0,0,0,0,0,0,0,0,0,0,0,0,0,0,0,0,0,0,0,0,0,0,0,0,0,0,0,0,0,0,0,0,0,0,0,0,0,0,0,0,0,0,0,0,0,0,0,0,0,0,0,0,0,0,0,0,0,0,0,0,0,0,0,0,0,0,0,0,0,0,0,0,0,0,0,0,0,0,0],"sum_hessian":[6.0498184E4,2.6720664E4,3.377752E4,1.927053E4,7.450135E3,5.213054E3,2.8564463E4,1.6007236E4,3.2632937E3,4.830088E3,2.6200466E3,1.8218002E3,3.3912542E3,4.1604434E3,2.4404021E4,1.5413637E4,5.935993E2,2.9753867E3,2.8790698E2,3.9844507E3,8.4563727E2,2.3255938E3,2.94453E2,1.6200356E3,2.017646E2,2.9573313E3,4.3392285E2,1.9786044E3,2.1818389E3,1.9969374E3,2.2407084E4,1.506073E4,3.529063E2,4.670564E2,1.26542946E2,2.7584038E3,2.16983E2,2.786329E2,9.274086E0,3.6596877E3,3.2476297E2,1.1694087E2,7.286964E2,2.1374482E3,1.8814532E2,1.67715E2,1.26738E2,1.4381892E3,1.8184633E2,1.4875322E2,5.301137E1,2.0266053E3,9.307261E2,2.99275E2,1.3464787E2,7.898817E2,1.1887227E3,6.023973E2,1.5794415E3,5.5433325E2,1.4426041E3,1.3145475E3,2.1092535E4,1.4028232E4,1.0324974E3,3.502359E2,2.6704214E0,1.2116193E2,3.4589447E2,1.1621671E2,1.0326233E1,2.728428E3,2.9975828E1,3.040745E1,1.8657555E2,8.700675E0,2.6993222E2,4.3572564E0,4.91683E0,3.237556E3,4.2213187E2,1.9122263E1,3.056407E2,2.1710451E1,9.523042E1,3.578534E2,3.7084305E2,1.8030103E3,3.344381E2,1.0326425E2,8.488108E1,3.3191814E1,1.3452318E2,1.19658554E2,7.079451E0,1.3594578E3,7.873148E1,4.453229E1,1.3731404E2,1.4403526E2,4.7179594E0,2.2283302E1,3.072807E1,1.4069214E3,6.1968384E2,8.3574976E2,9.497628E1,1.4428217E2,1.5499281E2,2.930868E1,1.0533919E2,5.5890906E2,2.3097267E2,1.0209878E3,1.6773486E2,4.252735E2,1.771238E2,1.5533678E3,2.6073727E1,2.868731E2,2.6746014E2,4.0529977E2,1.0373043E3,1.2311864E3,8.3361145E1,9.0415265E2,2.0188383E4,1.3951289E4,7.694416E1,8.6245337E2,1.7004414E2,1.8403006E2,1.6620583E2,5.317302E1,6.798891E1,2.487024E2,9.719206E1,6.141919E0,1.100748E2,8.0983715E0,2.2278616E0,2.3891536E3,3.3927438E2,2.1511585E1,8.464241E0,4.648967E0,2.5758482E1,9.588027E1,9.069528E1,6.822599E1,2.0170622E2,1.7415874E0,3.1752424E0,2.077068E3,1.1604877E3,4.683521E0,4.1744836E2,3.4699378E0,1.5652325E1,2.5582722E2,4.9813477E1,1.6338316E1,5.3721356E0,5.945898E0,8.928452E1,1.9889018E2,1.5896321E2,2.408424E2,1.3000064E2,1.2211611E3,5.8184906E2,1.0269332E2,2.3174478E2,8.525786E1,1.80064E1,6.3616043E1,2.1265034E1,9.116064E0,2.407575E1,1.308271E2,3.6960864E0,1.0549642E2,1.4162133E1,1.7284365E0,5.351014E0,4.6984634E2,8.8961145E2,7.6755905E0,7.105589E1,1.1933779E1,3.2598515E1,1.2920355E2,8.110485E0,2.8217714E1,1.1581755E2,3.4892633E0,1.2286961E0,1.3153419E1,9.129885E0,1.947791E1,1.125016E1,5.309971E2,8.759244E2,4.2389053E2,1.9579333E2,1.77106E2,6.5864374E2,6.0072815E1,3.4903465E1,3.1604412E1,1.1267776E2,3.9696346E1,1.1529646E2,2.9707026E0,2.6337976E1,7.7654106E1,2.7685083E1,4.23602E2,1.3530704E2,1.2074578E2,1.102269E2,5.9216675E2,4.2882104E2,1.1792056E2,4.9814293E1,2.4969234E2,1.7558116E2,3.682837E0,1.7344096E2,7.712373E2,7.821305E2,2.2379631E1,3.6940956E0,2.7570865E2,1.1164455E1,1.632442E2,1.0421592E2,1.1771072E2,2.8758905E2,2.6366644E2,7.736379E2,3.4482635E2,8.8636005E2,6.645808E1,1.6903069E1,2.7214612E2,6.3200653E2,7.325083E2,1.9455875E4],"tree_param":{"num_deleted":"0","num_feature":"43","num_nodes":"249","size_leaf_vector":"1"}},{"base_weights":[-1.5569023E-5,-1.2627271E0,9.986111E-1,-1.5819479E0,-4.4273666E-1,-1.31779695E-2,1.1842773E0,-1.6492378E0,-1.2526604E0,-5.678089E-1,-2.1204615E-1,-3.894748E-1,1.8899919E-1,3.7973303E-1,1.3222466E0,-1.6713969E0,-1.0986893E0,-1.3167112E0,-5.911658E-1,-6.275116E-1,-2.8627598E-1,-1.1939256E-1,-9.437479E-1,-4.793577E-1,3.8181242E-1,2.7633053E-1,-4.879123E-1,2.9677587E-2,5.902804E-1,6.719154E-1,1.3804842E0,-1.6813569E0,-1.2411573E0,-6.207055E-1,-1.2172111E0,-1.3447385E0,-9.56817E-1,-6.370462E-1,7.1855325E-1,-6.6297895E-1,-2.2744341E-1,1.1227455E-2,-4.714853E-1,-4.4244394E-2,-9.709875E-1,-1.4533726E0,-2.678623E-1,-3.6255488E-1,-1.2004323E0,-2.2627534E-1,5.7460123E-1,4.5640004E-1,-1.2426636E-1,-8.3226556E-1,2.8129938E-1,-2.5126177E-1,2.1665551E-1,2.3782183E-1,7.9555357E-1,3.1008992E-1,8.110029E-1,7.9238355E-1,1.4172857E0,-1.6975559E0,-1.4522105E0,-1.2617803E0,5.2518804E-2,-6.759663E-1,6.068467E-1,-1.4900514E0,-1.1185313E0,-1.3516282E0,-6.9661313E-1,-4.3957046E-1,-1.0606761E0,-8.027311E-2,-6.002321E-1,6.3421756E-2,1.0079438E-1,-6.224619E-1,-9.719386E-1,3.5362566E-1,-3.0323395E-1,-1.7901814E-1,4.5209384E-1,-6.0909116E-1,-6.8743676E-2,1.9224295E-1,-2.5730053E-1,-6.0315245E-1,-1.4085313E0,-6.670081E-1,-1.642363E0,-3.3448625E-1,7.628562E-1,-2.7117312E-1,-1.3000933E0,-4.6422666E-1,-1.4747088E0,-3.211482E-1,5.30604E-2,1.0884445E0,4.2716545E-1,6.024184E-1,3.168045E-2,-5.648246E-3,-1.1621296E0,-1.2371184E0,-4.2135364E-1,7.065734E-2,6.9753706E-1,-5.0132686E-1,-8.889252E-2,-6.9650985E-2,4.41292E-1,-2.6788035E-2,4.2267522E-1,4.2663845E-1,9.5759994E-1,3.8245272E-2,4.1295585E-1,4.4774085E-1,9.527859E-1,8.499347E-1,-5.5070106E-2,8.8532484E-1,1.4411832E0,-8.492329E-2,-3.5890692E-3,-7.44819E-2,-6.1845273E-2,-6.394912E-2,2.7897885E-2,-9.444657E-3,-4.02612E-2,-3.907893E-2,6.272467E-2,-7.9495914E-2,-6.0818303E-2,-6.14354E-2,-4.048352E-2,-6.886972E-2,-5.8348693E-2,-1.3164165E-2,-6.408179E-2,-6.068779E-2,-1.0960315E-2,-5.7786793E-2,-3.174847E-2,-1.5161169E-2,-3.4940824E-2,-4.245068E-2,3.502964E-2,-2.3213081E-2,-3.6250576E-2,-3.2154664E-2,-5.086377E-2,-4.6865042E-2,2.6579468E-2,-3.4385677E-2,-1.0025906E-2,1.3769889E-2,-1.468308E-2,4.043294E-2,8.267792E-3,-2.6037872E-2,-5.3974636E-2,-3.2057095E-2,2.5654307E-3,1.6671343E-2,-1.5334234E-2,-2.2601014E-2,1.458572E-2,-2.5260815E-2,-6.5020554E-2,-8.2680136E-2,-4.0333245E-2,-3.9218836E-2,5.8214933E-2,-8.504072E-2,-7.244193E-3,5.740398E-2,-1.8896516E-2,5.403129E-2,-1.2773472E-2,-2.2708753E-3,-2.3924889E-2,-2.652954E-2,-7.8649186E-2,-2.9911412E-2,1.8429315E-2,2.8721739E-2,-7.8526005E-2,-2.8560704E-3,-4.694254E-2,6.196795E-2,-4.7964588E-2,4.1043635E-2,1.0377535E-2,1.6725738E-2,3.8419753E-2,-1.602061E-2,3.611042E-2,-2.4926243E-2,6.370023E-3,-7.122555E-2,-3.296586E-2,-9.03699E-3,-7.5601205E-2,-2.8920252E-2,-5.7696872E-3,4.35681E-2,-5.039674E-3,8.14587E-3,5.0742336E-2,-1.0218329E-2,-3.285418E-2,-1.5509821E-2,4.9344073E-3,-1.5209219E-2,6.1657387E-3,-2.4437748E-3,2.5392458E-2,-1.6629864E-2,1.012707E-2,1.0496225E-2,2.8544847E-2,2.2479879E-2,-6.985774E-2,3.0616043E-2,5.4669347E-2,-1.4794223E-2,1.281334E-2,5.117194E-3,2.6605982E-2,6.2503815E-3,2.8957063E-2,3.171812E-2,5.303189E-2,2.9906351E-2,4.736627E-2,-9.533747E-3,4.9895566E-2,4.9836237E-2,2.5380021E-2,5.3095408E-2,7.2773054E-2],"categories":[],"categories_nodes":[],"categories_segments":[],"categories_sizes":[],"default_left":[0,0,0,0,0,0,0,0,0,0,0,0,0,0,0,0,0,0,0,0,0,0,0,0,0,0,0,0,0,0,0,0,0,0,0,0,0,0,0,0,0,0,0,0,0,0,0,0,0,0,0,0,0,0,0,0,0,0,0,0,0,0,0,0,0,0,0,0,0,0,0,0,0,0,0,0,0,0,0,0,0,0,0,0,0,0,0,0,0,0,0,0,0,0,0,0,0,0,0,0,0,0,0,0,0,0,0,0,0,0,0,0,0,0,0,0,0,0,0,0,0,0,0,0,0,0,0,0,0,0,0,0,0,0,0,0,0,0,0,0,0,0,0,0,0,0,0,0,0,0,0,0,0,0,0,0,0,0,0,0,0,0,0,0,0,0,0,0,0,0,0,0,0,0,0,0,0,0,0,0,0,0,0,0,0,0,0,0,0,0,0,0,0,0,0,0,0,0,0,0,0,0,0,0,0,0,0,0,0,0,0,0,0,0,0,0,0,0,0,0,0,0,0,0,0,0,0,0,0,0,0,0,0,0,0,0,0,0,0,0,0,0,0,0,0,0,0],"id":3,"left_children":[1,3,5,7,9,11,13,15,17,19,21,23,25,27,29,31,33,35,37,39,41,43,45,47,49,51,53,55,57,59,61,63,65,67,69,71,73,75,77,79,81,83,85,87,89,91,93,95,97,99,101,103,105,107,109,111,113,115,117,119,121,123,125,127,129,131,-1,133,135,137,139,141,143,145,147,-1,149,-1,151,153,155,157,159,161,163,165,167,169,171,173,175,177,179,181,183,185,187,189,191,193,-1,195,197,199,201,203,205,207,209,211,213,215,217,219,221,223,225,227,229,231,233,235,237,239,241,243,245,-1,-1,-1,-1,-1,-1,-1,-1,-1,-1,-1,-1,-1,-1,-1,-1,-1,-1,-1,-1,-1,-1,-1,-1,-1,-1,-1,-1,-1,-1,-1,-1,-1,-1,-1,-1,-1,-1,-1,-1,-1,-1,-1,-1,-1,-1,-1,-1,-1,-1,-1,-1,-1,-1,-1,-1,-1,-1,-1,-1,-1,-1,-1,-1,-1,-1,-1,-1,-1,-1,-1,-1,-1,-1,-1,-1,-1,-1,-1,-1,-1,-1,-1,-1,-1,-1,-1,-1,-1,-1,-1,-1,-1,-1,-1,-1,-1,-1,-1,-1,-1,-1,-1,-1,-1,-1,-1,-1,-1,-1,-1,-1,-1,-1,-1,-1,-1,-1,-1,-1],"loss_changes":[7.5838516E4,6.9514688E3,6.3087734E3,4.2151953E2,2.146521E2,3.9629688E2,3.1493125E3,1.9176953E2,1.3682959E2,8.094031E1,1.7740836E2,1.2639383E2,2.0044925E2,3.062351E2,9.164414E2,6.328125E1,3.4196167E1,2.8573242E1,1.7795753E1,5.633618E1,4.663292E1,1.4876921E2,1.0093442E2,1.3693173E2,2.2471401E1,2.1660309E2,1.0289485E2,8.20865E1,1.8752899E2,1.0003485E2,4.8E2,5.286328E1,1.7816528E1,8.864304E0,1.1615784E1,1.1311035E1,1.1209854E1,8.993629E0,3.34903E0,4.516443E1,1.4451176E1,2.739514E1,2.8863228E1,1.0776428E2,2.9490097E1,2.3795013E1,9.023018E0,1.2002347E2,4.5138275E1,6.031973E0,1.0518623E1,1.2843228E2,1.14696335E2,4.405876E1,1.0524468E1,2.5311447E1,6.0367825E1,4.679069E1,9.7585815E1,1.5502388E1,7.367853E1,6.400787E1,2.6466406E2,2.046875E1,6.144043E0,1.1554077E1,0E0,7.385906E0,6.281839E0,1.5652466E0,1.1470367E1,1.1305664E1,7.502392E0,6.2256866E0,6.5622864E0,0E0,7.7132797E0,0E0,3.9596972E0,5.214807E1,5.6389465E0,9.2381E0,1.1262045E1,1.196961E1,9.932175E0,1.5585785E1,9.23768E0,7.151303E1,1.20405106E2,6.4559402E0,1.1254974E1,8.250423E0,1.1512878E1,8.203078E0,2.8831782E0,5.9959694E1,2.5314041E1,7.2573996E0,3.327237E1,7.1488605E0,0E0,1.0978535E1,9.712654E0,6.827673E1,1.293242E2,5.4961346E1,1.1667801E1,3.877629E1,6.396593E0,1.1233472E1,6.6898975E0,1.1227261E1,1.57991495E1,1.8743217E1,1.7179543E1,2.7717783E1,1.7636833E1,2.1651688E1,5.2691162E1,1.1253956E1,1.484346E1,1.7136864E1,3.4837402E1,2.9550842E1,1.2232533E1,3.744757E1,1.06859375E2,0E0,0E0,0E0,0E0,0E0,0E0,0E0,0E0,0E0,0E0,0E0,0E0,0E0,0E0,0E0,0E0,0E0,0E0,0E0,0E0,0E0,0E0,0E0,0E0,0E0,0E0,0E0,0E0,0E0,0E0,0E0,0E0,0E0,0E0,0E0,0E0,0E0,0E0,0E0,0E0,0E0,0E0,0E0,0E0,0E0,0E0,0E0,0E0,0E0,0E0,0E0,0E0,0E0,0E0,0E0,0E0,0E0,0E0,0E0,0E0,0E0,0E0,0E0,0E0,0E0,0E0,0E0,0E0,0E0,0E0,0E0,0E0,0E0,0E0,0E0,0E0,0E0,0E0,0E0,0E0,0E0,0E0,0E0,0E0,0E0,0E0,0E0,0E0,0E0,0E0,0E0,0E0,0E0,0E0,0E0,0E0,0E0,0E0,0E0,0E0,0E0,0E0,0E0,0E0,0E0,0E0,0E0,0E0,0E0,0E0,0E0,0E0,0E0,0E0,0E0,0E0,0E0,0E0,0E0,0E0],"parents":[2147483647,0,0,1,1,2,2,3,3,4,4,5,5,6,6,7,7,8,8,9,9,10,10,11,11,12,12,13,13,14,14,15,15,16,16,17,17,18,18,19,19,20,20,21,21,22,22,23,23,24,24,25,25,26,26,27,27,28,28,29,29,30,30,31,31,32,32,33,33,34,34,35,35,36,36,37,37,38,38,39,39,40,40,41,41,42,42,43,43,44,44,45,45,46,46,47,47,48,48,49,49,50,50,51,51,52,52,53,53,54,54,55,55,56,56,57,57,58,58,59,59,60,60,61,61,62,62,63,63,64,64,65,65,67,67,68,68,69,69,70,70,71,71,72,72,73,73,74,74,76,76,78,78,79,79,80,80,81,81,82,82,83,83,84,84,85,85,86,86,87,87,88,88,89,89,90,90,91,91,92,92,93,93,94,94,95,95,96,96,97,97,98,98,99,99,101,101,102,102,103,103,104,104,105,105,106,106,107,107,108,108,109,109,110,110,111,111,112,112,113,113,114,114,115,115,116,116,117,117,118,118,119,119,120,120,121,121,122,122,123,123,124,124,125,125,126,126],"right_children":[2,4,6,8,10,12,14,16,18,20,22,24,26,28,30,32,34,36,38,40,42,44,46,48,50,52,54,56,58,60,62,64,66,68,70,72,74,76,78,80,82,84,86,88,90,92,94,96,98,100,102,104,106,108,110,112,114,116,118,120,122,124,126,128,130,132,-1,134,136,138,140,142,144,146,148,-1,150,-1,152,154,156,158,160,162,164,166,168,170,172,174,176,178,180,182,184,186,188,190,192,194,-1,196,198,200,202,204,206,208,210,212,214,216,218,220,222,224,226,228,230,232,234,236,238,240,242,244,246,-1,-1,-1,-1,-1,-1,-1,-1,-1,-1,-1,-1,-1,-1,-1,-1,-1,-1,-1,-1,-1,-1,-1,-1,-1,-1,-1,-1,-1,-1,-1,-1,-1,-1,-1,-1,-1,-1,-1,-1,-1,-1,-1,-1,-1,-1,-1,-1,-1,-1,-1,-1,-1,-1,-1,-1,-1,-1,-1,-1,-1,-1,-1,-1,-1,-1,-1,-1,-1,-1,-1,-1,-1,-1,-1,-1,-1,-1,-1,-1,-1,-1,-1,-1,-1,-1,-1,-1,-1,-1,-1,-1,-1,-1,-1,-1,-1,-1,-1,-1,-1,-1,-1,-1,-1,-1,-1,-1,-1,-1,-1,-1,-1,-1,-1,-1,-1,-1,-1,-1],"split_conditions":[-2.3982656E-1,-6.7183834E-1,-9.582262E-2,2.1660961E-1,-9.582262E-2,-9.582262E-2,-9.582262E-2,1.5097679E0,-9.582262E-2,5.786311E-1,7.3372245E-1,6.183916E-1,5.225068E-1,-9.582262E-2,-9.582262E-2,-9.582262E-2,1.3821602E-2,8.279049E-1,1.3442286E0,1.643833E0,5.0168365E-1,4.7694343E-1,4.9593234E-1,5.119022E-1,8.1829005E-1,1.8946847E-1,5.807933E-1,-9.582262E-2,-9.582262E-2,-9.582262E-2,-9.582262E-2,3.7017927E-1,4.2102617E-1,1.9296311E-1,5.68577E-1,1.4652158E0,5.417115E1,-1.0704639E0,3.8278468E-2,6.128028E-1,-6.840363E-1,1.3947806E0,1.5842087E0,3.1878224E-1,-9.582262E-2,-9.582262E-2,9.3693787E-1,5.673758E-1,-9.582262E-2,1.7194524E0,4.8321772E-1,3.28073E-1,6.128028E-1,7.200197E-1,2.7116406E0,-9.582262E-2,-9.582262E-2,-9.582262E-2,-9.582262E-2,-9.582262E-2,-9.582262E-2,5.225068E-1,-9.582262E-2,1.4072111E0,8.055385E-1,5.807933E-1,5.2518804E-2,-1.2352017E0,5.6279264E-2,6.8077475E-1,-9.582262E-2,6.682565E1,2.6044664E-1,4.1207707E-1,1.2568102E0,-8.027311E-2,-6.2058395E-1,6.3421756E-2,1.2755313E0,3.4897366E-1,-9.5716643E-1,1.418578E0,-1.1672387E0,4.3904137E1,1.9706192E0,7.837894E-1,9.216962E-1,7.899936E-2,3.5831624E-1,7.8879215E-2,4.2456183E-1,1.0549576E0,7.174829E-1,-4.0577692E-1,-9.582262E-2,2.4387027E-1,1.040871E0,7.3201865E-1,-9.582262E-2,5.468029E-1,5.30604E-2,2.556245E0,2.6252523E-1,-9.582262E-2,1.7583959E-1,4.8181318E-2,2.1860895E-1,-9.582262E-2,-9.582262E-2,5.9810317E-1,1.4978894E0,4.9803026E-2,-9.582262E-2,-9.582262E-2,-9.582262E-2,-9.582262E-2,-9.582262E-2,6.128028E-1,-9.582262E-2,-4.5838115E-1,-9.582262E-2,-9.582262E-2,-9.582262E-2,-9.582262E-2,2.759635E0,2.8385356E-1,-9.582262E-2,-8.492329E-2,-3.5890692E-3,-7.44819E-2,-6.1845273E-2,-6.394912E-2,2.7897885E-2,-9.444657E-3,-4.02612E-2,-3.907893E-2,6.272467E-2,-7.9495914E-2,-6.0818303E-2,-6.14354E-2,-4.048352E-2,-6.886972E-2,-5.8348693E-2,-1.3164165E-2,-6.408179E-2,-6.068779E-2,-1.0960315E-2,-5.7786793E-2,-3.174847E-2,-1.5161169E-2,-3.4940824E-2,-4.245068E-2,3.502964E-2,-2.3213081E-2,-3.6250576E-2,-3.2154664E-2,-5.086377E-2,-4.6865042E-2,2.6579468E-2,-3.4385677E-2,-1.0025906E-2,1.3769889E-2,-1.468308E-2,4.043294E-2,8.267792E-3,-2.6037872E-2,-5.3974636E-2,-3.2057095E-2,2.5654307E-3,1.6671343E-2,-1.5334234E-2,-2.2601014E-2,1.458572E-2,-2.5260815E-2,-6.5020554E-2,-8.2680136E-2,-4.0333245E-2,-3.9218836E-2,5.8214933E-2,-8.504072E-2,-7.244193E-3,5.740398E-2,-1.8896516E-2,5.403129E-2,-1.2773472E-2,-2.2708753E-3,-2.3924889E-2,-2.652954E-2,-7.8649186E-2,-2.9911412E-2,1.8429315E-2,2.8721739E-2,-7.8526005E-2,-2.8560704E-3,-4.694254E-2,6.196795E-2,-4.7964588E-2,4.1043635E-2,1.0377535E-2,1.6725738E-2,3.8419753E-2,-1.602061E-2,3.611042E-2,-2.4926243E-2,6.370023E-3,-7.122555E-2,-3.296586E-2,-9.03699E-3,-7.5601205E-2,-2.8920252E-2,-5.7696872E-3,4.35681E-2,-5.039674E-3,8.14587E-3,5.0742336E-2,-1.0218329E-2,-3.285418E-2,-1.5509821E-2,4.9344073E-3,-1.5209219E-2,6.1657387E-3,-2.4437748E-3,2.5392458E-2,-1.6629864E-2,1.012707E-2,1.0496225E-2,2.8544847E-2,2.2479879E-2,-6.985774E-2,3.0616043E-2,5.4669347E-2,-1.4794223E-2,1.281334E-2,5.117194E-3,2.6605982E-2,6.2503815E-3,2.8957063E-2,3.171812E-2,5.303189E-2,2.9906351E-2,4.736627E-2,-9.533747E-3,4.9895566E-2,4.9836237E-2,2.5380021E-2,5.3095408E-2,7.2773054E-2],"split_indices":[37,37,4,40,25,21,25,15,25,30,40,5,40,22,24,25,34,39,39,33,40,34,3,40,30,34,3,21,24,22,22,34,36,26,13,35,2,39,34,34,35,28,39,40,24,24,6,34,25,16,0,40,34,38,20,23,23,21,21,23,23,40,21,31,15,3,0,5,36,11,25,2,0,29,39,0,10,0,28,40,3,15,28,2,9,32,28,34,17,3,1,40,26,19,24,34,15,20,23,40,0,30,40,25,36,37,1,25,25,36,3,34,24,24,37,23,23,34,23,39,21,21,21,23,28,40,23,0,0,0,0,0,0,0,0,0,0,0,0,0,0,0,0,0,0,0,0,0,0,0,0,0,0,0,0,0,0,0,0,0,0,0,0,0,0,0,0,0,0,0,0,0,0,0,0,0,0,0,0,0,0,0,0,0,0,0,0,0,0,0,0,0,0,0,0,0,0,0,0,0,0,0,0,0,0,0,0,0,0,0,0,0,0,0,0,0,0,0,0,0,0,0,0,0,0,0,0,0,0,0,0,0,0,0,0,0,0,0,0,0,0,0,0,0,0,0,0],"split_type":[0,0,0,0,0,0,0,0,0,0,0,0,0,0,0,0,0,0,0,0,0,0,0,0,0,0,0,0,0,0,0,0,0,0,0,0,0,0,0,0,0,0,0,0,0,0,0,0,0,0,0,0,0,0,0,0,0,0,0,0,0,0,0,0,0,0,0,0,0,0,0,0,0,0,0,0,0,0,0,0,0,0,0,0,0,0,0,0,0,0,0,0,0,0,0,0,0,0,0,0,0,0,0,0,0,0,0,0,0,0,0,0,0,0,0,0,0,0,0,0,0,0,0,0,0,0,0,0,0,0,0,0,0,0,0,0,0,0,0,0,0,0,0,0,0,0,0,0,0,0,0,0,0,0,0,0,0,0,0,0,0,0,0,0,0,0,0,0,0,0,0,0,0,0,0,0,0,0,0,0,0,0,0,0,0,0,0,0,0,0,0,0,0,0,0,0,0,0,0,0,0,0,0,0,0,0,0,0,0,0,0,0,0,0,0,0,0,0,0,0,0,0,0,0,0,0,0,0,0,0,0,0,0,0,0,0,0,0,0,0,0,0,0,0,0,0,0],"sum_hessian":[6.014064E4,2.6558516E4,3.3582125E4,1.9115826E4,7.442688E3,5.207075E3,2.837505E4,1.5868997E4,3.2468296E3,4.8251826E3,2.6175054E3,1.8195536E3,3.3875217E3,4.1542124E3,2.4220838E4,1.5253038E4,6.159595E2,2.959298E3,2.8753152E2,3.9799526E3,8.4523E2,2.3243428E3,2.9316263E2,1.6299803E3,1.8957327E2,3.000948E3,3.865737E2,1.5606393E3,2.5935732E3,1.9917554E3,2.2229082E4,1.4905079E4,3.4795917E2,1.2362636E2,4.923331E2,2.7429502E3,2.163478E2,2.782962E2,9.23532E0,3.6552466E3,3.247061E2,3.2466193E2,5.2056805E2,2.136832E3,1.875107E2,1.6648265E2,1.2667996E2,1.4040491E3,2.2593124E2,4.5592693E1,1.4398058E2,2.070233E3,9.307153E2,2.6697498E2,1.1959875E2,6.23488E2,9.371513E2,9.553591E2,1.6382141E3,5.5394336E2,1.437812E3,1.3104323E3,2.091865E4,1.3914982E4,9.900968E2,3.4530096E2,2.6582081E0,1.1873078E2,4.8955755E0,1.2702399E2,3.653091E2,2.713025E3,2.9925383E1,3.7051857E1,1.7929593E2,8.631435E0,2.6966476E2,4.3288355E0,4.9064846E0,3.2341362E3,4.2111026E2,3.7042645E1,2.8766345E2,2.2720909E2,9.7452835E1,3.8761737E2,1.3295068E2,1.012774E3,1.124058E3,1.0316244E2,8.434826E1,3.313626E1,1.3334639E2,1.196232E2,7.056765E0,1.2805256E3,1.2352343E2,6.2055664E1,1.6387558E2,4.316266E1,2.4300346E0,3.0678244E1,1.1330233E2,1.5402704E3,5.2996246E2,8.361559E2,9.4559395E1,1.3346617E2,1.3350879E2,8.018827E1,3.941048E1,2.446361E2,3.7885187E2,4.1232266E2,5.248287E2,3.932678E2,5.620913E2,5.0108224E2,1.137132E3,1.5244568E2,4.0149768E2,4.048092E2,1.0330028E3,1.2270964E3,8.333581E1,9.009716E2,2.001768E4,1.3907154E4,7.827924E0,8.384308E2,1.5166599E2,3.4236172E2,2.9392166E0,2.541657E1,9.331421E1,1.491436E0,3.4041395E0,8.954134E1,3.748264E1,2.67064E2,9.824513E1,2.375144E3,3.378808E2,1.8024536E1,1.1900846E1,7.2108116E0,2.9841047E1,1.4516576E2,3.413018E1,6.82179E1,2.0144687E2,1.7383037E0,3.1681812E0,1.2741179E3,1.9600183E3,5.286252E1,3.6824774E2,3.970963E0,3.3071682E1,5.9447582E1,2.2821585E2,4.5491352E1,1.8171774E2,4.262612E1,5.4826714E1,3.2811063E2,5.9506752E1,2.2297543E1,1.1065314E2,7.8965375E2,2.2312029E2,8.298949E2,2.941631E2,9.196913E1,1.1193305E1,5.869929E1,2.564897E1,3.167772E1,1.4585426E0,1.282063E2,5.1400905E0,2.681688E0,1.16941505E2,5.3317943E0,1.7249706E0,6.135982E2,6.669275E2,3.310829E1,9.041514E1,5.369732E1,8.358347E0,7.096883E0,1.5677869E2,3.1003288E1,1.215937E1,2.894017E1,1.7380731E0,3.959031E1,7.371202E1,5.903689E2,9.499014E2,3.5134927E2,1.7861317E2,1.7715208E2,6.590038E2,6.09309E1,3.3628498E1,2.790258E1,1.055636E2,8.763477E1,4.5874012E1,1.3422168E1,6.67661E1,1.5242522E1,2.4167957E1,8.496222E1,1.5967387E2,1.7350294E2,2.0534894E2,1.858552E2,2.2646747E2,6.277572E1,4.6205295E2,1.6833884E2,2.2492897E2,2.3179689E2,3.302944E2,4.9559683E2,5.4854174E0,3.2252493E2,8.14607E2,6.0053432E1,9.239225E1,1.1183851E2,2.8965918E2,1.1769331E2,2.871159E2,2.63101E2,7.699018E2,3.4422626E2,8.828702E2,7.455358E1,8.782225E0,6.945065E2,2.0646515E2,7.289632E2,1.9288717E4],"tree_param":{"num_deleted":"0","num_feature":"43","num_nodes":"247","size_leaf_vector":"1"}},{"base_weights":[-4.0700525E-5,-1.2098876E0,9.5591426E-1,-1.5198511E0,-4.2126465E-1,-1.2590097E-2,1.1348596E0,-1.5845778E0,-1.1925082E0,-5.402715E-1,-2.0180702E-1,-3.7072697E-1,1.7980073E-1,3.6149952E-1,1.2684872E0,-1.6058252E0,-1.0349982E0,-1.2553401E0,-5.565034E-1,-5.97168E-1,-2.7222338E-1,-1.1360274E-1,-9.0197104E-1,-4.5973617E-1,3.4269553E-1,2.5242886E-1,-5.627001E-1,2.8189344E-2,5.623969E-1,6.405202E-1,1.32511E0,-1.6158257E0,-1.1832306E0,-1.1510413E0,-6.040511E-1,-1.2830669E0,-9.124684E-1,-6.009266E-1,6.915492E-1,-6.3096774E-1,-2.163753E-1,3.059431E-1,-3.6079898E-1,-2.6137736E-1,2.871325E-1,-1.3950589E0,-2.5399235E-1,-3.371956E-1,-1.076263E0,4.9511567E-1,-8.564629E-2,2.9570806E-1,-1.111949E0,-9.28449E-1,1.4942639E-1,-2.3889829E-1,2.0600522E-1,2.2615772E-1,7.588238E-1,2.9490712E-1,7.7380675E-1,7.558599E-1,1.3609679E0,-1.631914E0,-1.3958659E0,-1.2026153E0,5.0830413E-2,-1.4198414E0,-1.0539606E0,-6.8697494E-1,3.074851E-1,-1.2899668E0,-6.552343E-1,-3.5939375E-1,-1.0008547E0,-7.611902E-2,-5.6989086E-1,-7.558773E-2,1.0882485E0,-9.450943E-1,-5.9180075E-1,7.942738E-1,-2.5655958E-1,-4.3309647E-1,4.1566366E-1,-5.657783E-1,-1.6290852E-1,-4.1846433E-1,1.3620807E-1,4.781011E-1,-1.6056322E-1,-6.3444674E-1,-1.5796764E0,-3.1757414E-1,7.323897E-1,-2.4687664E-1,-1.2445866E0,-1.2224321E0,-1.3927624E-1,5.693814E-1,-4.8032966E-1,-3.4775487E-1,5.337379E-1,6.090419E-1,1.5370071E-1,-1.4688126E0,-7.53919E-1,-1.3288512E0,-4.1365206E-1,3.0909693E-1,-3.8480574E-1,-3.2987812E-1,1.903996E-1,-6.620153E-2,4.1980994E-1,-2.547282E-2,4.0209126E-1,4.0571913E-1,9.145214E-1,1.3891602E-1,4.6126089E-1,4.2608118E-1,9.100294E-1,8.1092054E-1,-5.1846366E-2,8.4485865E-1,1.3843039E0,-8.1739835E-2,-5.5877257E-2,-7.1675815E-2,-5.993054E-2,-6.2710546E-2,-2.1295913E-2,-8.3143376E-2,-6.429824E-2,-1.8922642E-2,-5.5084314E-2,2.165455E-2,-3.7644766E-2,2.7519932E-2,-2.362625E-2,-6.572416E-2,-5.5968083E-2,5.1029574E-2,-4.0249493E-2,3.3760883E-2,-2.8226918E-2,3.7637502E-2,-5.082276E-2,-1.1427163E-2,-3.2857608E-2,3.5872582E-2,-4.11766E-2,6.460274E-2,4.2209136E-3,-5.168265E-2,-3.3561338E-2,-3.4032363E-2,-2.147383E-2,5.0909627E-2,-3.537E-2,-8.93778E-3,-3.2800306E-2,-5.1595725E-2,8.43913E-3,4.0481634E-2,1.0511827E-2,-8.606066E-3,-3.2251418E-2,-1.7801896E-2,9.864978E-3,-2.6130259E-2,1.6157E-2,8.92949E-3,-3.582884E-2,3.8351543E-2,9.023878E-3,-2.2433337E-2,2.98728E-3,7.35416E-3,-4.628054E-2,-8.1407845E-2,4.4793067E-3,-1.0947261E-2,-4.954956E-2,-1.2367982E-2,5.1993597E-2,-2.951437E-4,-2.2607615E-2,-2.5938943E-2,-7.6246515E-2,-6.939762E-2,-5.912914E-3,4.4884913E-2,-1.4835E-2,1.8466953E-2,4.3183204E-2,3.1881463E-2,-4.7870502E-2,-3.4044337E-2,6.9309655E-3,6.795356E-2,-5.8036963E-3,3.5644975E-2,-1.7733673E-2,-8.777363E-3,1.4292503E-2,3.3218885E-4,-7.796459E-2,8.24113E-4,-5.0107665E-2,-1.319982E-2,-7.791333E-2,-1.1328963E-2,-4.081058E-2,1.8501718E-2,-6.906573E-2,2.0149136E-2,-3.8465362E-2,-2.6250264E-2,-9.365729E-3,3.267735E-2,-5.9858733E-3,1.4742531E-2,-9.203577E-3,2.2206398E-2,-4.441863E-2,-1.580673E-2,9.6269185E-3,2.4578035E-2,2.980677E-3,7.88782E-3,2.8490791E-2,2.9152352E-2,5.227108E-2,-3.1496373E-3,1.7131913E-2,3.0730212E-2,1.0889272E-2,5.9414613E-3,2.7570391E-2,3.0217052E-2,5.069665E-2,2.8476862E-2,4.522712E-2,-1.2148883E-2,3.3630606E-2,2.7050605E-2,4.875959E-2,5.075824E-2,6.991343E-2],"categories":[],"categories_nodes":[],"categories_segments":[],"categories_sizes":[],"default_left":[0,0,0,0,0,0,0,0,0,0,0,0,0,0,0,0,0,0,0,0,0,0,0,0,0,0,0,0,0,0,0,0,0,0,0,0,0,0,0,0,0,0,0,0,0,0,0,0,0,0,0,0,0,0,0,0,0,0,0,0,0,0,0,0,0,0,0,0,0,0,0,0,0,0,0,0,0,0,0,0,0,0,0,0,0,0,0,0,0,0,0,0,0,0,0,0,0,0,0,0,0,0,0,0,0,0,0,0,0,0,0,0,0,0,0,0,0,0,0,0,0,0,0,0,0,0,0,0,0,0,0,0,0,0,0,0,0,0,0,0,0,0,0,0,0,0,0,0,0,0,0,0,0,0,0,0,0,0,0,0,0,0,0,0,0,0,0,0,0,0,0,0,0,0,0,0,0,0,0,0,0,0,0,0,0,0,0,0,0,0,0,0,0,0,0,0,0,0,0,0,0,0,0,0,0,0,0,0,0,0,0,0,0,0,0,0,0,0,0,0,0,0,0,0,0,0,0,0,0,0,0,0,0,0,0,0,0,0,0,0,0,0,0,0,0,0,0,0,0,0,0],"id":4,"left_children":[1,3,5,7,9,11,13,15,17,19,21,23,25,27,29,31,33,35,37,39,41,43,45,47,49,51,53,55,57,59,61,63,65,67,69,71,73,75,77,79,81,83,85,87,89,91,93,95,97,99,101,103,105,107,109,111,113,115,117,119,121,123,125,127,129,131,-1,133,135,137,139,141,143,145,147,-1,149,151,153,155,157,159,161,163,165,167,169,171,173,175,177,179,181,183,185,187,189,191,193,195,197,199,201,203,205,207,209,211,213,215,217,219,221,223,225,227,229,231,233,235,237,239,241,243,245,247,249,-1,-1,-1,-1,-1,-1,-1,-1,-1,-1,-1,-1,-1,-1,-1,-1,-1,-1,-1,-1,-1,-1,-1,-1,-1,-1,-1,-1,-1,-1,-1,-1,-1,-1,-1,-1,-1,-1,-1,-1,-1,-1,-1,-1,-1,-1,-1,-1,-1,-1,-1,-1,-1,-1,-1,-1,-1,-1,-1,-1,-1,-1,-1,-1,-1,-1,-1,-1,-1,-1,-1,-1,-1,-1,-1,-1,-1,-1,-1,-1,-1,-1,-1,-1,-1,-1,-1,-1,-1,-1,-1,-1,-1,-1,-1,-1,-1,-1,-1,-1,-1,-1,-1,-1,-1,-1,-1,-1,-1,-1,-1,-1,-1,-1,-1,-1,-1,-1,-1,-1,-1,-1,-1,-1],"loss_changes":[6.9022375E4,6.4383945E3,5.7777207E3,3.987461E2,1.9403345E2,3.5835812E2,2.9074453E3,1.8265625E2,1.2420947E2,7.33363E1,1.6141199E2,1.155741E2,1.825993E2,2.776778E2,8.522539E2,6.2304688E1,2.88266E1,2.5864746E1,1.6096207E1,5.101941E1,4.341855E1,1.3768944E2,9.309012E1,1.2175278E2,1.324254E1,1.8235797E2,7.873897E1,7.416742E1,1.7072064E2,9.127484E1,4.481875E2,5.0242188E1,1.636084E1,1.0611633E1,9.836895E0,1.0541992E1,1.0210571E1,6.958E0,3.1820536E0,4.4348633E1,1.3425145E1,9.333827E0,2.9672737E1,1.06124916E2,5.364376E1,2.2287903E1,8.235371E0,1.1031688E2,3.64722E1,1.1086796E1,8.938533E0,1.3288998E2,1.1029106E1,4.0575394E1,8.927219E0,2.444268E1,5.458518E1,4.231399E1,8.940051E1,1.4323944E1,6.748639E1,5.8139587E1,2.4815234E2,1.8671875E1,5.845215E0,1.3586273E1,0E0,1.7734222E0,1.0697815E1,8.9673E0,2.4029346E0,9.399414E0,8.502994E0,7.036021E0,5.8501434E0,0E0,7.782646E0,3.2048302E0,1.2778063E0,9.079742E0,4.6551147E1,4.988452E0,9.6369915E0,5.6102796E0,7.826233E0,1.112104E1,2.6140625E1,9.420361E1,1.7538666E1,3.7651024E1,1.1965423E1,7.887911E0,1.0892303E1,7.791359E0,2.676199E0,6.0784912E1,2.4022125E1,4.2111023E1,6.344428E0,7.8735313E0,6.5322976E0,6.330673E0,8.967207E0,9.351022E1,8.959091E1,6.220314E0,9.477411E0,2.689441E1,6.497897E0,8.757507E0,7.642255E0,1.4239559E1,1.584701E1,1.7641205E1,1.7101555E1,2.5036617E1,1.7204536E1,2.0314888E1,4.8525635E1,1.1850374E1,9.867748E0,1.5538139E1,3.206067E1,2.7124268E1,1.183758E1,3.5038635E1,1.0067578E2,0E0,0E0,0E0,0E0,0E0,0E0,0E0,0E0,0E0,0E0,0E0,0E0,0E0,0E0,0E0,0E0,0E0,0E0,0E0,0E0,0E0,0E0,0E0,0E0,0E0,0E0,0E0,0E0,0E0,0E0,0E0,0E0,0E0,0E0,0E0,0E0,0E0,0E0,0E0,0E0,0E0,0E0,0E0,0E0,0E0,0E0,0E0,0E0,0E0,0E0,0E0,0E0,0E0,0E0,0E0,0E0,0E0,0E0,0E0,0E0,0E0,0E0,0E0,0E0,0E0,0E0,0E0,0E0,0E0,0E0,0E0,0E0,0E0,0E0,0E0,0E0,0E0,0E0,0E0,0E0,0E0,0E0,0E0,0E0,0E0,0E0,0E0,0E0,0E0,0E0,0E0,0E0,0E0,0E0,0E0,0E0,0E0,0E0,0E0,0E0,0E0,0E0,0E0,0E0,0E0,0E0,0E0,0E0,0E0,0E0,0E0,0E0,0E0,0E0,0E0,0E0,0E0,0E0,0E0,0E0,0E0,0E0,0E0,0E0],"parents":[2147483647,0,0,1,1,2,2,3,3,4,4,5,5,6,6,7,7,8,8,9,9,10,10,11,11,12,12,13,13,14,14,15,15,16,16,17,17,18,18,19,19,20,20,21,21,22,22,23,23,24,24,25,25,26,26,27,27,28,28,29,29,30,30,31,31,32,32,33,33,34,34,35,35,36,36,37,37,38,38,39,39,40,40,41,41,42,42,43,43,44,44,45,45,46,46,47,47,48,48,49,49,50,50,51,51,52,52,53,53,54,54,55,55,56,56,57,57,58,58,59,59,60,60,61,61,62,62,63,63,64,64,65,65,67,67,68,68,69,69,70,70,71,71,72,72,73,73,74,74,76,76,77,77,78,78,79,79,80,80,81,81,82,82,83,83,84,84,85,85,86,86,87,87,88,88,89,89,90,90,91,91,92,92,93,93,94,94,95,95,96,96,97,97,98,98,99,99,100,100,101,101,102,102,103,103,104,104,105,105,106,106,107,107,108,108,109,109,110,110,111,111,112,112,113,113,114,114,115,115,116,116,117,117,118,118,119,119,120,120,121,121,122,122,123,123,124,124,125,125,126,126],"right_children":[2,4,6,8,10,12,14,16,18,20,22,24,26,28,30,32,34,36,38,40,42,44,46,48,50,52,54,56,58,60,62,64,66,68,70,72,74,76,78,80,82,84,86,88,90,92,94,96,98,100,102,104,106,108,110,112,114,116,118,120,122,124,126,128,130,132,-1,134,136,138,140,142,144,146,148,-1,150,152,154,156,158,160,162,164,166,168,170,172,174,176,178,180,182,184,186,188,190,192,194,196,198,200,202,204,206,208,210,212,214,216,218,220,222,224,226,228,230,232,234,236,238,240,242,244,246,248,250,-1,-1,-1,-1,-1,-1,-1,-1,-1,-1,-1,-1,-1,-1,-1,-1,-1,-1,-1,-1,-1,-1,-1,-1,-1,-1,-1,-1,-1,-1,-1,-1,-1,-1,-1,-1,-1,-1,-1,-1,-1,-1,-1,-1,-1,-1,-1,-1,-1,-1,-1,-1,-1,-1,-1,-1,-1,-1,-1,-1,-1,-1,-1,-1,-1,-1,-1,-1,-1,-1,-1,-1,-1,-1,-1,-1,-1,-1,-1,-1,-1,-1,-1,-1,-1,-1,-1,-1,-1,-1,-1,-1,-1,-1,-1,-1,-1,-1,-1,-1,-1,-1,-1,-1,-1,-1,-1,-1,-1,-1,-1,-1,-1,-1,-1,-1,-1,-1,-1,-1,-1,-1,-1,-1],"split_conditions":[-2.3982656E-1,-6.7183834E-1,-9.582262E-2,2.2229342E-1,-9.582262E-2,-9.582262E-2,-9.582262E-2,1.5551333E0,-9.582262E-2,5.786311E-1,7.3372245E-1,5.61995E-1,5.7317567E-1,-9.582262E-2,-9.582262E-2,-9.582262E-2,1.6854587E0,8.279049E-1,1.3442286E0,1.643833E0,3.331341E-1,5.450476E-1,4.9593234E-1,4.6315283E-1,5.468029E-1,6.128028E-1,5.807933E-1,-9.582262E-2,-9.582262E-2,-9.582262E-2,-9.582262E-2,3.5823232E-1,4.2102617E-1,5.519548E-1,6.047074E1,1.4652158E0,5.304152E1,-1.0704639E0,1.2755313E0,-9.512555E-1,-8.575329E-1,4.4756353E-1,1.0267788E0,-9.582262E-2,3.9016265E-1,-9.582262E-2,9.3693787E-1,5.673758E-1,6.443291E1,5.293503E-2,1.4609531E0,7.8874207E-1,-7.2593436E-2,7.200197E-1,2.6585393E0,4.0092364E-1,-9.582262E-2,-9.582262E-2,-9.582262E-2,-1.8760829E-1,-9.582262E-2,5.225068E-1,-9.582262E-2,6.904921E-1,8.055385E-1,1.5406136E-1,5.0830413E-2,1.6111574E-1,-8.071509E-1,-1.3766711E0,1.0486203E-1,6.682565E1,5.9810317E-1,3.6018652E-1,-1.7710574E0,-7.611902E-2,-5.948148E-1,3.8278468E-2,6.3054806E1,5.336538E1,-3.838305E-1,1.6214596E-1,3.0646747E-1,4.6232918E-1,1.2156619E0,5.0482246E1,1.0955576E0,1.6684383E0,6.6687787E-1,4.1376397E-1,1.8588544E0,6.9302075E-2,5.7890385E-1,6.2419707E-1,9.748085E-1,2.4387027E-1,-9.582262E-2,3.9422205E-1,-6.35228E-1,1.4932721E0,7.26456E-1,1.1716707E0,6.6870254E-1,3.6183777E-1,4.8181318E-2,5.72501E-2,-7.527551E-1,-9.582262E-2,7.3372245E-1,1.117649E0,6.890389E-1,-9.582262E-2,6.285545E-1,-5.9470475E-1,5.673758E-1,-9.582262E-2,3.918406E-1,-9.582262E-2,-9.582262E-2,4.8181318E-2,3.0592185E-1,-9.582262E-2,-9.582262E-2,-9.582262E-2,1.6082624E0,-9.582262E-2,-9.582262E-2,-8.1739835E-2,-5.5877257E-2,-7.1675815E-2,-5.993054E-2,-6.2710546E-2,-2.1295913E-2,-8.3143376E-2,-6.429824E-2,-1.8922642E-2,-5.5084314E-2,2.165455E-2,-3.7644766E-2,2.7519932E-2,-2.362625E-2,-6.572416E-2,-5.5968083E-2,5.1029574E-2,-4.0249493E-2,3.3760883E-2,-2.8226918E-2,3.7637502E-2,-5.082276E-2,-1.1427163E-2,-3.2857608E-2,3.5872582E-2,-4.11766E-2,6.460274E-2,4.2209136E-3,-5.168265E-2,-3.3561338E-2,-3.4032363E-2,-2.147383E-2,5.0909627E-2,-3.537E-2,-8.93778E-3,-3.2800306E-2,-5.1595725E-2,8.43913E-3,4.0481634E-2,1.0511827E-2,-8.606066E-3,-3.2251418E-2,-1.7801896E-2,9.864978E-3,-2.6130259E-2,1.6157E-2,8.92949E-3,-3.582884E-2,3.8351543E-2,9.023878E-3,-2.2433337E-2,2.98728E-3,7.35416E-3,-4.628054E-2,-8.1407845E-2,4.4793067E-3,-1.0947261E-2,-4.954956E-2,-1.2367982E-2,5.1993597E-2,-2.951437E-4,-2.2607615E-2,-2.5938943E-2,-7.6246515E-2,-6.939762E-2,-5.912914E-3,4.4884913E-2,-1.4835E-2,1.8466953E-2,4.3183204E-2,3.1881463E-2,-4.7870502E-2,-3.4044337E-2,6.9309655E-3,6.795356E-2,-5.8036963E-3,3.5644975E-2,-1.7733673E-2,-8.777363E-3,1.4292503E-2,3.3218885E-4,-7.796459E-2,8.24113E-4,-5.0107665E-2,-1.319982E-2,-7.791333E-2,-1.1328963E-2,-4.081058E-2,1.8501718E-2,-6.906573E-2,2.0149136E-2,-3.8465362E-2,-2.6250264E-2,-9.365729E-3,3.267735E-2,-5.9858733E-3,1.4742531E-2,-9.203577E-3,2.2206398E-2,-4.441863E-2,-1.580673E-2,9.6269185E-3,2.4578035E-2,2.980677E-3,7.88782E-3,2.8490791E-2,2.9152352E-2,5.227108E-2,-3.1496373E-3,1.7131913E-2,3.0730212E-2,1.0889272E-2,5.9414613E-3,2.7570391E-2,3.0217052E-2,5.069665E-2,2.8476862E-2,4.522712E-2,-1.2148883E-2,3.3630606E-2,2.7050605E-2,4.875959E-2,5.075824E-2,6.991343E-2],"split_indices":[37,37,4,40,25,21,25,15,25,30,40,26,40,22,24,25,33,39,39,33,40,39,3,40,40,34,3,21,24,22,22,34,36,13,2,35,2,39,28,39,3,26,28,4,32,24,6,34,2,34,26,38,1,38,27,26,23,21,21,27,23,40,21,30,15,32,0,34,16,39,32,2,36,40,14,0,17,34,2,2,37,36,3,27,10,2,19,33,34,40,31,32,5,21,27,34,25,16,20,29,0,41,0,32,37,33,17,25,40,12,9,23,31,18,34,23,40,23,23,37,40,21,21,23,17,23,23,0,0,0,0,0,0,0,0,0,0,0,0,0,0,0,0,0,0,0,0,0,0,0,0,0,0,0,0,0,0,0,0,0,0,0,0,0,0,0,0,0,0,0,0,0,0,0,0,0,0,0,0,0,0,0,0,0,0,0,0,0,0,0,0,0,0,0,0,0,0,0,0,0,0,0,0,0,0,0,0,0,0,0,0,0,0,0,0,0,0,0,0,0,0,0,0,0,0,0,0,0,0,0,0,0,0,0,0,0,0,0,0,0,0,0,0,0,0,0,0,0,0,0,0],"split_type":[0,0,0,0,0,0,0,0,0,0,0,0,0,0,0,0,0,0,0,0,0,0,0,0,0,0,0,0,0,0,0,0,0,0,0,0,0,0,0,0,0,0,0,0,0,0,0,0,0,0,0,0,0,0,0,0,0,0,0,0,0,0,0,0,0,0,0,0,0,0,0,0,0,0,0,0,0,0,0,0,0,0,0,0,0,0,0,0,0,0,0,0,0,0,0,0,0,0,0,0,0,0,0,0,0,0,0,0,0,0,0,0,0,0,0,0,0,0,0,0,0,0,0,0,0,0,0,0,0,0,0,0,0,0,0,0,0,0,0,0,0,0,0,0,0,0,0,0,0,0,0,0,0,0,0,0,0,0,0,0,0,0,0,0,0,0,0,0,0,0,0,0,0,0,0,0,0,0,0,0,0,0,0,0,0,0,0,0,0,0,0,0,0,0,0,0,0,0,0,0,0,0,0,0,0,0,0,0,0,0,0,0,0,0,0,0,0,0,0,0,0,0,0,0,0,0,0,0,0,0,0,0,0,0,0,0,0,0,0,0,0,0,0,0,0,0,0,0,0,0,0],"sum_hessian":[5.967707E4,2.6340516E4,3.3336555E4,1.8907938E4,7.4325776E3,5.1989966E3,2.8137559E4,1.5783224E4,3.1247148E3,4.818275E3,2.6143027E3,1.8165497E3,3.3824468E3,4.1460884E3,2.399147E4,1.5193886E4,5.893373E2,2.8428877E3,2.8182715E2,3.9736008E3,8.446739E2,2.3228413E3,2.914614E2,1.6153662E3,2.011834E2,3.0816714E3,3.0077536E2,1.5596322E3,2.5864563E3,1.9853652E3,2.2006105E4,1.4839887E4,3.5399896E2,4.6299374E2,1.2634352E2,2.627657E3,2.1523077E2,2.7264127E2,9.185884E0,3.649049E3,3.2455173E2,1.11887505E2,7.327864E2,1.6972963E3,6.255451E2,1.6485777E2,1.26603615E2,1.348822E3,2.6654422E2,1.4826813E2,5.2915264E1,2.9876829E3,9.398849E1,1.985144E2,1.0226096E2,6.232054E2,9.3642676E2,9.5457965E2,1.6318766E3,5.5345776E2,1.4319076E3,1.3053619E3,2.0700742E4,1.3822464E4,1.0174235E3,3.513562E2,2.642778E0,1.1923289E2,3.4376086E2,1.1603407E2,1.0309447E1,2.5980493E3,2.9607658E1,3.0354502E1,1.8487627E2,7.3179636E0,2.653233E2,3.406962E0,5.778922E0,4.0197845E2,3.2470706E3,1.1693369E1,3.1285837E2,1.4082877E1,9.780463E1,3.59033E2,3.737534E2,1.2165729E3,4.8072342E2,4.3845166E2,1.8709341E2,3.3065716E1,1.3179205E2,1.1957397E2,7.02965E0,1.2278751E3,1.2094694E2,2.3031122E2,3.6233006E1,1.3816518E2,1.0102946E1,3.7489254E1,1.542601E1,9.307434E2,2.0569395E3,4.5517147E1,4.847134E1,1.107743E2,8.7740105E1,7.905464E1,2.3206322E1,5.144179E2,1.0878749E2,4.1225378E2,5.24173E2,3.9314117E2,5.6143854E2,5.0047076E2,1.1314058E3,2.865721E2,2.6688562E2,4.0421796E2,1.0276896E3,1.2220518E3,8.331017E1,8.9710724E2,1.9803637E4,1.3743263E4,7.92006E1,8.490891E2,1.6833443E2,3.288931E2,2.2463083E1,3.829501E1,8.093788E1,2.3273829E1,3.2048703E2,6.139899E0,1.0989417E2,8.085731E0,2.2237172E0,2.2657522E3,3.3229706E2,1.9517485E0,2.765591E1,4.6436477E0,2.5710854E1,1.2135402E0,1.8366273E2,5.475449E1,2.1056882E2,1.6734183E0,1.7335439E0,4.564976E0,1.2139459E0,3.0165875E2,1.0031972E2,2.096422E3,1.1506486E3,1.0456181E1,1.2371881E0,2.6306604E2,4.979234E1,6.7012353E0,7.381642E0,3.251192E1,6.529271E1,6.0698524E1,2.9833447E2,2.4331111E2,1.3044226E2,1.067029E3,1.4954375E2,4.5871667E2,2.200674E1,2.2167491E2,2.1677676E2,8.0623474E1,1.0646993E2,9.109427E0,2.395629E1,1.2809636E2,3.695692E0,1.0545422E2,1.4119743E1,1.7258862E0,5.303764E0,5.6529834E2,6.625768E2,3.4493645E1,8.645329E1,2.0006381E2,3.0247404E1,4.155785E0,3.207722E1,8.359528E1,5.4569897E1,2.9211621E0,7.1817837E0,2.2012398E1,1.5476858E1,6.31446E0,9.11155E0,8.404321E2,9.031132E1,5.890364E2,1.4679031E3,2.6835008E0,4.2833645E1,1.2039632E1,3.643171E1,2.001648E1,9.075782E1,6.096978E1,2.6770325E1,7.7057884E1,1.9967511E0,7.595719E0,1.5610602E1,2.160403E2,2.9837762E2,4.3185E1,6.5602486E1,1.0109238E2,3.111614E2,5.152553E2,8.91766E0,1.6830272E2,2.2483844E2,4.4480234E2,1.1663616E2,2.0008629E2,3.0038446E2,3.2184985E2,8.095559E2,1.4427359E2,1.4229852E2,1.6281729E2,1.0406834E2,1.176744E2,2.8654358E2,2.6242905E2,7.652605E2,3.434991E2,8.785527E2,6.644487E1,1.6865307E1,2.7084225E2,6.2626495E2,7.2455884E2,1.9079076E4],"tree_param":{"num_deleted":"0","num_feature":"43","num_nodes":"251","size_leaf_vector":"1"}},{"base_weights":[-6.9631074E-5,-1.1614697E0,9.1625404E-1,-1.4639366E0,-4.0093723E-1,-1.2082595E-2,1.089187E0,-1.529096E0,-1.1484962E0,-5.1425856E-1,-1.9206007E-1,-3.5302767E-1,1.7096996E-1,3.442707E-1,1.2190605E0,-1.5505167E0,-1.004693E0,-1.2085335E0,-5.361969E-1,-5.6852055E-1,-2.5890273E-1,-8.90212E-2,-7.6081395E-1,-4.3504807E-1,3.5033327E-1,2.560241E-1,-4.103704E-1,2.6784297E-2,5.36126E-1,6.10917E-1,1.274348E0,-1.5601993E0,-1.1374104E0,-5.616396E-1,-1.1156188E0,-1.2349368E0,-8.7229806E-1,-5.7807684E-1,6.6690165E-1,-5.298132E-1,-8.947566E-1,-1.1326505E-2,-4.5421988E-1,2.4184903E-2,-5.44479E-1,-9.090231E-1,1.6278155E-1,-3.281038E-1,-1.1032667E0,-2.1788521E-1,5.3093606E-1,4.304429E-1,-1.2320879E-1,-7.2992104E-1,2.9534116E-1,-2.2706518E-1,1.9585092E-1,2.1508521E-1,7.2435266E-1,2.805316E-1,7.3882395E-1,7.214808E-1,1.3094493E0,-1.5762811E0,-1.341248E0,-1.1600219E0,7.62471E-1,-6.1354625E-1,5.87077E-1,-1.3764536E0,-1.0221545E0,-1.2414091E0,-6.339214E-1,-3.4480226E-1,-9.596541E-1,-7.500949E-2,-5.4371285E-1,5.9744693E-2,8.0129735E-2,-3.357741E-1,-6.3741904E-1,-1.0500532E0,-7.9681796E-1,-1.7434064E-1,3.7883782E-1,-6.8966556E-1,-1.8959725E-1,-3.8446385E-1,1.4927083E-1,-9.656403E-1,-1.9227843E-1,-1.0453246E0,2.7574992E-1,4.9478152E-1,-5.814599E-1,-2.6250163E-1,-1.4291973E0,-4.0660992E-1,-1.3669648E0,-3.0750445E-1,5.0191857E-2,1.024565E0,3.8993648E-1,5.806511E-1,8.9897804E-2,-1.6766598E-2,-1.0660203E0,-1.116652E0,-3.7167546E-1,9.33982E-1,1.11692324E-1,-3.1360257E-1,1.8115848E-1,-6.28774E-2,3.9935568E-1,-2.1730587E-2,3.8569823E-1,3.8609302E-1,8.741709E-1,2.52642E-2,3.772727E-1,4.055569E-1,8.699511E-1,7.7422994E-1,-4.9017183E-2,8.069246E-1,1.3323449E0,-7.8959785E-2,-5.2169573E-2,-6.890136E-2,-5.7051558E-2,-4.867093E-2,-7.057702E-2,5.849732E-2,-1.0300827E-2,-2.511859E-2,-5.9978582E-2,-3.761663E-2,6.060877E-2,-7.783095E-2,-6.1065536E-2,-5.6474656E-2,-3.6185782E-2,-6.339615E-2,-5.3939324E-2,-1.4846127E-2,-6.877667E-2,-6.2541835E-2,-1.7524016E-3,-3.6083557E-2,-5.811155E-2,-2.3362001E-2,-4.5663383E-2,-3.9962083E-2,3.1985383E-2,-3.5878282E-2,-1.2537858E-2,-2.750806E-2,-3.9056018E-2,-4.500975E-2,-6.882306E-2,-3.383554E-2,-5.307726E-2,3.2201536E-2,-1.217298E-2,-2.0228129E-2,2.4300335E-2,-2.888599E-2,-5.189202E-2,-3.2077353E-2,1.882866E-3,-1.0366266E-2,-4.1674007E-2,1.1871754E-2,-1.919991E-2,-2.2549175E-2,-6.952368E-2,-1.5419044E-2,1.777452E-2,-5.7822872E-2,-1.0761434E-4,3.9215516E-2,-2.4165134E-3,7.2466336E-2,1.3013485E-2,1.2581216E-3,-6.4639255E-2,-2.727723E-2,-5.5826325E-3,-2.2000428E-2,-7.648513E-2,1.2204417E-2,-2.7882526E-2,2.8622273E-2,-7.297438E-2,-3.126869E-3,-4.4028934E-2,5.850611E-2,-4.6544287E-2,3.7941422E-2,9.242319E-3,1.6804611E-2,3.645381E-2,-9.492302E-3,3.4877297E-2,-1.3307727E-2,1.03092985E-2,-2.4502635E-2,-6.3763395E-2,-8.685228E-3,-6.918627E-2,1.937769E-4,-2.499528E-2,-2.8422926E-2,5.5978954E-2,1.38370665E-2,-1.7209167E-2,-2.4973111E-2,-8.898614E-3,3.1117424E-2,-5.705937E-3,-1.4295421E-2,6.0292706E-3,2.366495E-2,-6.665021E-4,-1.6936645E-2,8.411084E-3,2.4544636E-2,3.246861E-3,2.0398797E-2,-6.728103E-2,2.7768089E-2,5.0034553E-2,-1.4470491E-2,1.1277014E-2,2.023653E-2,-4.0388834E-2,1.5982972E-2,4.1244384E-2,2.8797135E-2,4.851532E-2,2.7124366E-2,4.3220572E-2,-8.86122E-3,4.7484603E-2,4.4719737E-2,1.791449E-2,4.857523E-2,6.730381E-2],"categories":[],"categories_nodes":[],"categories_segments":[],"categories_sizes":[],"default_left":[0,0,0,0,0,0,0,0,0,0,0,0,0,0,0,0,0,0,0,0,0,0,0,0,0,0,0,0,0,0,0,0,0,0,0,0,0,0,0,0,0,0,0,0,0,0,0,0,0,0,0,0,0,0,0,0,0,0,0,0,0,0,0,0,0,0,0,0,0,0,0,0,0,0,0,0,0,0,0,0,0,0,0,0,0,0,0,0,0,0,0,0,0,0,0,0,0,0,0,0,0,0,0,0,0,0,0,0,0,0,0,0,0,0,0,0,0,0,0,0,0,0,0,0,0,0,0,0,0,0,0,0,0,0,0,0,0,0,0,0,0,0,0,0,0,0,0,0,0,0,0,0,0,0,0,0,0,0,0,0,0,0,0,0,0,0,0,0,0,0,0,0,0,0,0,0,0,0,0,0,0,0,0,0,0,0,0,0,0,0,0,0,0,0,0,0,0,0,0,0,0,0,0,0,0,0,0,0,0,0,0,0,0,0,0,0,0,0,0,0,0,0,0,0,0,0,0,0,0,0,0,0,0,0,0,0,0,0,0,0,0,0,0,0,0,0,0,0,0],"id":5,"left_children":[1,3,5,7,9,11,13,15,17,19,21,23,25,27,29,31,33,35,37,39,41,43,45,47,49,51,53,55,57,59,61,63,65,67,69,71,73,75,77,79,81,83,85,87,89,91,93,95,97,99,101,103,105,107,109,111,113,115,117,119,121,123,125,127,129,131,133,135,137,139,141,143,145,147,149,-1,151,-1,153,155,157,159,161,163,165,167,169,171,173,175,177,179,181,183,185,187,189,191,193,195,-1,197,199,201,203,205,207,209,211,213,215,217,219,221,223,225,227,229,231,233,235,237,239,241,243,245,247,-1,-1,-1,-1,-1,-1,-1,-1,-1,-1,-1,-1,-1,-1,-1,-1,-1,-1,-1,-1,-1,-1,-1,-1,-1,-1,-1,-1,-1,-1,-1,-1,-1,-1,-1,-1,-1,-1,-1,-1,-1,-1,-1,-1,-1,-1,-1,-1,-1,-1,-1,-1,-1,-1,-1,-1,-1,-1,-1,-1,-1,-1,-1,-1,-1,-1,-1,-1,-1,-1,-1,-1,-1,-1,-1,-1,-1,-1,-1,-1,-1,-1,-1,-1,-1,-1,-1,-1,-1,-1,-1,-1,-1,-1,-1,-1,-1,-1,-1,-1,-1,-1,-1,-1,-1,-1,-1,-1,-1,-1,-1,-1,-1,-1,-1,-1,-1,-1,-1,-1,-1,-1],"loss_changes":[6.2925562E4,5.9980586E3,5.306086E3,3.8170703E2,1.755664E2,3.2403976E2,2.6950273E3,1.7210156E2,1.1691504E2,6.6508545E1,1.529924E2,1.04788635E2,1.6714674E2,2.5202283E2,7.9691016E2,5.7628906E1,2.9330261E1,2.477246E1,1.4865067E1,4.9615845E1,4.0851242E1,1.14081726E2,5.496498E1,1.1574939E2,1.9611032E1,1.9503209E2,9.753882E1,6.698013E1,1.556969E2,8.3423584E1,4.2107812E2,4.896875E1,1.5654053E1,7.7577553E0,1.0452759E1,9.705566E0,9.594894E0,8.001152E0,3.0430503E0,7.387543E1,5.540161E0,2.3829979E1,2.9294113E1,9.0679405E1,6.514885E1,5.6039124E1,1.41798935E1,1.0090114E2,4.054669E1,5.402936E0,9.65411E0,1.0324161E2,9.325331E1,4.0780777E1,1.5755271E1,2.2098843E1,4.9343983E1,3.8580925E1,8.2036316E1,1.36701355E1,6.1967346E1,5.2893494E1,2.3417578E2,1.9339844E1,5.7873535E0,1.4591064E1,2.0749297E0,7.162792E0,5.8306885E0,1.6053467E0,1.0779907E1,1.0134277E1,7.284374E0,8.983084E0,8.0433655E0,0E0,7.1984863E0,0E0,3.3999884E0,4.0975525E1,2.8177612E1,6.53862E0,7.5886536E0,1.5102026E1,9.467037E0,9.126549E0,2.3003965E1,3.2896538E1,6.3942375E1,4.3176422E1,1.5443902E1,3.591574E1,6.0389395E0,8.447034E0,7.714909E0,5.6488564E1,7.1423492E0,6.31398E0,2.988327E1,6.137695E0,0E0,1.0048832E1,8.482075E0,5.061203E1,1.0539636E2,4.6545906E1,1.07363205E1,3.5643677E1,7.507534E0,9.019852E0,8.082733E0,1.2897934E1,1.4370776E1,1.6943956E1,1.6009567E1,2.4186573E1,1.8693497E1,1.9524208E1,4.4850952E1,9.727199E0,1.3395771E1,1.4307732E1,2.961145E1,2.4969482E1,1.0958148E1,3.4743713E1,9.558203E1,0E0,0E0,0E0,0E0,0E0,0E0,0E0,0E0,0E0,0E0,0E0,0E0,0E0,0E0,0E0,0E0,0E0,0E0,0E0,0E0,0E0,0E0,0E0,0E0,0E0,0E0,0E0,0E0,0E0,0E0,0E0,0E0,0E0,0E0,0E0,0E0,0E0,0E0,0E0,0E0,0E0,0E0,0E0,0E0,0E0,0E0,0E0,0E0,0E0,0E0,0E0,0E0,0E0,0E0,0E0,0E0,0E0,0E0,0E0,0E0,0E0,0E0,0E0,0E0,0E0,0E0,0E0,0E0,0E0,0E0,0E0,0E0,0E0,0E0,0E0,0E0,0E0,0E0,0E0,0E0,0E0,0E0,0E0,0E0,0E0,0E0,0E0,0E0,0E0,0E0,0E0,0E0,0E0,0E0,0E0,0E0,0E0,0E0,0E0,0E0,0E0,0E0,0E0,0E0,0E0,0E0,0E0,0E0,0E0,0E0,0E0,0E0,0E0,0E0,0E0,0E0,0E0,0E0,0E0,0E0,0E0,0E0],"parents":[2147483647,0,0,1,1,2,2,3,3,4,4,5,5,6,6,7,7,8,8,9,9,10,10,11,11,12,12,13,13,14,14,15,15,16,16,17,17,18,18,19,19,20,20,21,21,22,22,23,23,24,24,25,25,26,26,27,27,28,28,29,29,30,30,31,31,32,32,33,33,34,34,35,35,36,36,37,37,38,38,39,39,40,40,41,41,42,42,43,43,44,44,45,45,46,46,47,47,48,48,49,49,50,50,51,51,52,52,53,53,54,54,55,55,56,56,57,57,58,58,59,59,60,60,61,61,62,62,63,63,64,64,65,65,66,66,67,67,68,68,69,69,70,70,71,71,72,72,73,73,74,74,76,76,78,78,79,79,80,80,81,81,82,82,83,83,84,84,85,85,86,86,87,87,88,88,89,89,90,90,91,91,92,92,93,93,94,94,95,95,96,96,97,97,98,98,99,99,101,101,102,102,103,103,104,104,105,105,106,106,107,107,108,108,109,109,110,110,111,111,112,112,113,113,114,114,115,115,116,116,117,117,118,118,119,119,120,120,121,121,122,122,123,123,124,124,125,125,126,126],"right_children":[2,4,6,8,10,12,14,16,18,20,22,24,26,28,30,32,34,36,38,40,42,44,46,48,50,52,54,56,58,60,62,64,66,68,70,72,74,76,78,80,82,84,86,88,90,92,94,96,98,100,102,104,106,108,110,112,114,116,118,120,122,124,126,128,130,132,134,136,138,140,142,144,146,148,150,-1,152,-1,154,156,158,160,162,164,166,168,170,172,174,176,178,180,182,184,186,188,190,192,194,196,-1,198,200,202,204,206,208,210,212,214,216,218,220,222,224,226,228,230,232,234,236,238,240,242,244,246,248,-1,-1,-1,-1,-1,-1,-1,-1,-1,-1,-1,-1,-1,-1,-1,-1,-1,-1,-1,-1,-1,-1,-1,-1,-1,-1,-1,-1,-1,-1,-1,-1,-1,-1,-1,-1,-1,-1,-1,-1,-1,-1,-1,-1,-1,-1,-1,-1,-1,-1,-1,-1,-1,-1,-1,-1,-1,-1,-1,-1,-1,-1,-1,-1,-1,-1,-1,-1,-1,-1,-1,-1,-1,-1,-1,-1,-1,-1,-1,-1,-1,-1,-1,-1,-1,-1,-1,-1,-1,-1,-1,-1,-1,-1,-1,-1,-1,-1,-1,-1,-1,-1,-1,-1,-1,-1,-1,-1,-1,-1,-1,-1,-1,-1,-1,-1,-1,-1,-1,-1,-1,-1],"split_conditions":[-2.3982656E-1,-6.7183834E-1,-9.582262E-2,2.1660961E-1,-9.582262E-2,-9.582262E-2,-9.582262E-2,1.5097679E0,-9.582262E-2,5.786311E-1,6.2419707E-1,6.183916E-1,5.0168365E-1,-9.582262E-2,-9.582262E-2,-9.582262E-2,1.3821602E-2,8.279049E-1,1.3442286E0,6.128028E-1,5.3469825E-1,5.7317567E-1,6.4287347E-1,5.119022E-1,8.1829005E-1,1.8946847E-1,5.446002E-1,-9.582262E-2,-9.582262E-2,-9.582262E-2,-9.582262E-2,3.5823232E-1,5.807933E-1,1.9296311E-1,5.68577E-1,1.4652158E0,6.177153E-1,-1.0704639E0,3.8278468E-2,2.8734967E-1,1.2199362E-1,1.3947806E0,7.3235905E-1,-5.278344E-1,4.6245313E-1,1.5554874E0,2.998073E-1,7.8558505E-1,-9.582262E-2,1.7194524E0,4.8321772E-1,2.8734967E-1,6.128028E-1,7.200197E-1,5.7317567E-1,4.0092364E-1,-9.582262E-2,-9.582262E-2,-9.582262E-2,-9.582262E-2,-9.582262E-2,5.225068E-1,-9.582262E-2,6.904921E-1,8.055385E-1,3.3145523E-1,9.9947214E-1,-1.8760829E-1,5.6279264E-2,4.4509324E-1,-9.582262E-2,6.529145E1,8.1866974E-1,4.6232793E-1,5.468029E-1,-7.500949E-2,3.9016265E-1,5.9744693E-2,1.2755313E0,-1.0857646E0,1.3680354E-1,7.200197E-1,9.2741734E-1,4.2043835E1,8.1829005E-1,7.837894E-1,8.4484524E-1,-9.582262E-2,2.4387027E-1,-9.582262E-2,1.8745809E0,6.443291E1,1.844292E-1,2.6024115E-1,1.9706192E0,-9.582262E-2,8.261733E-2,7.8874207E-1,-9.582262E-2,5.468029E-1,5.0191857E-2,2.556245E0,2.6252523E-1,-9.582262E-2,1.7583959E-1,4.8019314E-1,6.4592856E-1,-9.582262E-2,-5.74624E-1,2.221294E-1,7.173378E-1,-9.582262E-2,5.9127253E-1,-9.582262E-2,4.5481026E-1,-2.8852245E-1,3.4897366E-1,6.128028E-1,-9.582262E-2,-4.7417492E-1,5.673758E-1,3.8185242E-1,-9.582262E-2,-9.582262E-2,2.759635E0,3.3827168E-1,-9.582262E-2,-7.8959785E-2,-5.2169573E-2,-6.890136E-2,-5.7051558E-2,-4.867093E-2,-7.057702E-2,5.849732E-2,-1.0300827E-2,-2.511859E-2,-5.9978582E-2,-3.761663E-2,6.060877E-2,-7.783095E-2,-6.1065536E-2,-5.6474656E-2,-3.6185782E-2,-6.339615E-2,-5.3939324E-2,-1.4846127E-2,-6.877667E-2,-6.2541835E-2,-1.7524016E-3,-3.6083557E-2,-5.811155E-2,-2.3362001E-2,-4.5663383E-2,-3.9962083E-2,3.1985383E-2,-3.5878282E-2,-1.2537858E-2,-2.750806E-2,-3.9056018E-2,-4.500975E-2,-6.882306E-2,-3.383554E-2,-5.307726E-2,3.2201536E-2,-1.217298E-2,-2.0228129E-2,2.4300335E-2,-2.888599E-2,-5.189202E-2,-3.2077353E-2,1.882866E-3,-1.0366266E-2,-4.1674007E-2,1.1871754E-2,-1.919991E-2,-2.2549175E-2,-6.952368E-2,-1.5419044E-2,1.777452E-2,-5.7822872E-2,-1.0761434E-4,3.9215516E-2,-2.4165134E-3,7.2466336E-2,1.3013485E-2,1.2581216E-3,-6.4639255E-2,-2.727723E-2,-5.5826325E-3,-2.2000428E-2,-7.648513E-2,1.2204417E-2,-2.7882526E-2,2.8622273E-2,-7.297438E-2,-3.126869E-3,-4.4028934E-2,5.850611E-2,-4.6544287E-2,3.7941422E-2,9.242319E-3,1.6804611E-2,3.645381E-2,-9.492302E-3,3.4877297E-2,-1.3307727E-2,1.03092985E-2,-2.4502635E-2,-6.3763395E-2,-8.685228E-3,-6.918627E-2,1.937769E-4,-2.499528E-2,-2.8422926E-2,5.5978954E-2,1.38370665E-2,-1.7209167E-2,-2.4973111E-2,-8.898614E-3,3.1117424E-2,-5.705937E-3,-1.4295421E-2,6.0292706E-3,2.366495E-2,-6.665021E-4,-1.6936645E-2,8.411084E-3,2.4544636E-2,3.246861E-3,2.0398797E-2,-6.728103E-2,2.7768089E-2,5.0034553E-2,-1.4470491E-2,1.1277014E-2,2.023653E-2,-4.0388834E-2,1.5982972E-2,4.1244384E-2,2.8797135E-2,4.851532E-2,2.7124366E-2,4.3220572E-2,-8.86122E-3,4.7484603E-2,4.4719737E-2,1.791449E-2,4.857523E-2,6.730381E-2],"split_indices":[37,37,4,40,25,21,25,15,25,30,24,5,40,22,24,25,34,39,39,34,40,40,26,40,30,34,3,21,24,22,22,34,3,26,13,35,0,39,34,40,40,28,17,37,5,1,32,34,25,16,0,40,34,38,40,26,23,23,21,23,23,40,21,30,15,30,16,27,36,34,25,2,5,29,40,0,32,0,28,26,0,38,34,2,30,32,28,24,34,24,39,2,41,10,7,22,15,38,23,40,0,30,40,25,36,37,14,25,6,29,9,23,0,24,40,27,40,34,23,39,34,16,21,23,28,40,23,0,0,0,0,0,0,0,0,0,0,0,0,0,0,0,0,0,0,0,0,0,0,0,0,0,0,0,0,0,0,0,0,0,0,0,0,0,0,0,0,0,0,0,0,0,0,0,0,0,0,0,0,0,0,0,0,0,0,0,0,0,0,0,0,0,0,0,0,0,0,0,0,0,0,0,0,0,0,0,0,0,0,0,0,0,0,0,0,0,0,0,0,0,0,0,0,0,0,0,0,0,0,0,0,0,0,0,0,0,0,0,0,0,0,0,0,0,0,0,0,0,0],"split_type":[0,0,0,0,0,0,0,0,0,0,0,0,0,0,0,0,0,0,0,0,0,0,0,0,0,0,0,0,0,0,0,0,0,0,0,0,0,0,0,0,0,0,0,0,0,0,0,0,0,0,0,0,0,0,0,0,0,0,0,0,0,0,0,0,0,0,0,0,0,0,0,0,0,0,0,0,0,0,0,0,0,0,0,0,0,0,0,0,0,0,0,0,0,0,0,0,0,0,0,0,0,0,0,0,0,0,0,0,0,0,0,0,0,0,0,0,0,0,0,0,0,0,0,0,0,0,0,0,0,0,0,0,0,0,0,0,0,0,0,0,0,0,0,0,0,0,0,0,0,0,0,0,0,0,0,0,0,0,0,0,0,0,0,0,0,0,0,0,0,0,0,0,0,0,0,0,0,0,0,0,0,0,0,0,0,0,0,0,0,0,0,0,0,0,0,0,0,0,0,0,0,0,0,0,0,0,0,0,0,0,0,0,0,0,0,0,0,0,0,0,0,0,0,0,0,0,0,0,0,0,0,0,0,0,0,0,0,0,0,0,0,0,0,0,0,0,0,0,0],"sum_hessian":[5.9126426E4,2.6075986E4,3.3050438E4,1.8655639E4,7.4203477E3,5.1900737E3,2.7860365E4,1.5458567E4,3.197072E3,4.809568E3,2.6107798E3,1.8127683E3,3.3773054E3,4.1367637E3,2.3723602E4,1.4850021E4,6.0854553E2,2.910698E3,2.8637408E2,3.9656575E3,8.4391034E2,2.2113203E3,3.994595E2,1.6237955E3,1.8897273E2,2.946737E3,4.305685E2,1.5586367E3,2.578127E3,1.9780264E3,2.1745574E4,1.4507216E4,3.4280566E2,1.23065895E2,4.854796E2,2.6962947E3,2.1440344E2,2.7724277E2,9.131329E0,3.5473901E3,4.1826752E2,3.7263324E2,4.7127707E2,1.7718627E3,4.3945755E2,3.4423584E2,5.522366E1,1.4010563E3,2.2273933E2,4.552718E1,1.4344556E2,2.0183237E3,9.284132E2,2.9634662E2,1.3422191E2,6.229497E2,9.356871E2,9.536747E2,1.6244521E3,5.52948E2,1.4250784E3,1.2994817E3,2.0446094E4,1.3508806E4,9.984109E2,3.391586E2,3.647084E0,1.18191124E2,4.874775E0,1.2444872E2,3.610309E2,2.666514E3,2.9780766E1,3.1164572E1,1.8323888E2,8.428171E0,2.688146E2,4.2608886E0,4.8704405E0,1.2669312E3,2.280459E3,1.5800508E2,2.6026245E2,2.6321347E2,1.0941978E2,2.4853711E2,2.2273994E2,4.1476733E2,1.3570953E3,1.9934235E2,2.4011522E2,3.0882498E2,3.541087E1,3.8420002E1,1.680366E1,1.323445E3,7.761127E1,6.185864E1,1.6088069E2,4.3112938E1,2.4142396E0,3.047799E1,1.1296757E2,1.4000724E3,6.182514E2,8.351443E2,9.326892E1,1.4148961E2,1.54857E2,2.9064407E1,1.0515749E2,5.141824E2,1.0876731E2,4.122539E2,5.234331E2,3.9972186E2,5.539528E2,4.9973267E2,1.1247195E3,1.5231113E2,4.0063684E2,4.035432E2,1.0215352E3,1.2162136E3,8.326815E1,8.9253107E2,1.9553562E4,1.3433369E4,7.543592E1,8.3849835E2,1.599125E2,1.9750114E2,1.4165744E2,2.4206297E0,1.2264545E0,1.0090564E2,1.728548E1,1.4863669E0,3.3884082E0,5.3401215E1,7.104751E1,2.6348074E2,9.755014E1,2.2868694E3,3.796443E2,2.143897E1,8.341795E0,7.1659455E0,2.3998627E1,8.635422E1,9.688466E1,2.2460162E2,4.4212975E1,1.7274599E0,3.1429803E0,2.293833E2,1.0375477E3,1.4218907E3,8.585682E2,1.108639E2,4.714119E1,1.8148065E2,7.8781784E1,1.9851633E1,2.4336185E2,1.28333645E1,9.658641E1,1.9008118E2,5.8455933E1,7.391646E1,1.4882349E2,2.9847827E2,1.1628904E2,1.165037E3,1.9205835E2,9.1073944E1,1.082684E2,1.9848279E2,4.1632435E1,2.7899414E2,2.9830841E1,1.3229876E1,2.2180994E1,6.5557246E0,3.1864275E1,9.589933E0,7.2137256E0,4.5920572E2,8.6423926E2,7.654304E0,6.995696E1,1.1537569E1,5.0321068E1,7.0894065E0,1.5379129E2,3.0979519E1,1.213342E1,2.8740269E1,1.7377201E0,3.939983E1,7.356773E1,5.300225E2,8.7004987E2,4.2382294E2,1.9442844E2,3.941105E2,4.4103378E2,2.5745296E1,6.752363E1,3.159357E1,1.0989604E2,3.966343E1,1.15193565E2,2.9687777E0,2.609563E1,7.7493904E1,2.7663591E1,2.1579176E2,2.9839062E2,4.3164772E1,6.560255E1,1.858105E2,2.2644342E2,4.437729E2,7.966026E1,1.4947945E2,2.502424E2,4.1674857E2,1.3720425E2,4.9425143E2,5.48123E0,3.210693E2,8.036502E2,5.906425E1,9.324688E1,3.9220776E2,8.429082E0,3.3639664E2,6.714658E1,2.61669E2,7.5986615E2,3.426666E2,8.73547E2,7.452385E1,8.744298E0,7.4607544E2,1.4645561E2,7.1943994E2,1.8834121E4],"tree_param":{"num_deleted":"0","num_feature":"43","num_nodes":"249","size_leaf_vector":"1"}},{"base_weights":[-1.1290644E-4,-1.1168389E0,8.7927693E-1,-1.4132719E0,-3.816926E-1,-1.1566E-2,1.046731E0,-1.4779605E0,-1.1022943E0,-4.8968327E-1,-1.8279013E-1,-3.363192E-1,1.6272414E-1,3.2793853E-1,1.1733344E0,-1.499213E0,-9.6258676E-1,-1.1607338E0,-5.1105237E-1,-5.75705E-1,-3.3921608E-1,-8.473417E-2,-7.255919E-1,-4.1779625E-1,3.1628156E-1,2.436608E-1,-3.9161435E-1,5.7654595E-1,1.0449576E-1,5.829096E-1,1.2275162E0,-1.5088508E0,-1.0913054E0,-1.0725045E0,-5.44184E-1,-1.1865252E0,-8.341172E-1,-5.5105895E-1,6.4299214E-1,-6.2161183E-1,-3.297776E-1,-1.4366667E-1,-6.360829E-1,2.2947842E-2,-5.1915616E-1,-8.674266E-1,1.551521E-1,-2.8562295E-1,-9.2446685E-1,4.5720497E-1,-7.915591E-2,4.0985268E-1,-1.1728521E-1,-6.8947035E-1,3.0031392E-1,2.5369367E-1,7.9422617E-1,-1.8378326E-1,3.246097E-1,2.6678076E-1,7.05803E-1,6.7427206E-1,1.2613587E0,-1.5246738E0,-1.2878076E0,-1.1208087E0,3.7244368E-1,-1.3290873E0,-9.7932035E-1,-6.0201335E-1,6.1435336E-1,-1.1345816E0,-1.2650207E0,-1.2293574E0,-7.15461E-1,-7.269668E-2,-5.178415E-1,5.785075E-2,7.502022E-2,-6.503736E-1,-2.4925974E-1,3.6840845E-2,-5.278535E-1,2.4266636E-1,-2.1003677E-1,-5.6330013E-1,-9.3326455E-1,8.6240806E-2,-7.272213E-1,-9.2396945E-1,-1.8270876E-1,-9.980553E-1,2.6305655E-1,4.7262856E-1,-5.561205E-1,9.406733E-2,-5.275601E-1,-1.0304483E0,2.7782902E-1,1.0072318E0,3.2227144E-1,-1.1350198E0,6.299382E-2,5.311449E-1,2.4645342E-2,-1.593274E-2,-1.0223081E0,-1.0553498E0,-3.5632345E-1,8.960241E-1,1.3595057E-1,3.9030233E-1,-7.6034695E-2,8.496591E-1,2.2978742E-1,-7.226771E-2,-5.1521677E-1,6.355221E-1,1.9238997E-1,1.9705218E-1,5.944075E-1,3.8606524E-1,8.3225167E-1,7.689066E-1,2.7584496E-1,7.85728E-1,1.2845757E0,-7.6279245E-2,2.215045E-3,-6.616066E-2,-5.4330535E-2,-4.596361E-2,-6.707229E-2,-1.1112242E-2,6.302448E-2,-7.133554E-2,-5.3213853E-2,-5.4163963E-2,-3.474855E-2,2.1857526E-2,-3.3035204E-2,-3.0834207E-2,5.0767597E-2,-5.87382E-2,-3.83422E-2,-6.500987E-2,-5.096195E-2,-6.464084E-2,1.5876641E-2,-7.0100473E-3,-4.4327833E-2,-1.8955683E-2,-3.53229E-2,-3.8802527E-2,3.0864516E-2,-4.120306E-2,-2.9982347E-2,-4.9949292E-2,-9.383772E-3,-3.1372607E-3,2.6316822E-2,-3.298774E-2,2.6744187E-3,2.0295236E-2,-2.542458E-2,-2.6556284E-3,-1.6862145E-2,-2.1502785E-2,-3.882074E-2,-6.362941E-2,-3.5030212E-2,-1.4836828E-2,9.87497E-3,-2.1602994E-2,-5.3626705E-2,-2.1449583E-2,-6.684638E-2,-1.4655403E-2,1.6916784E-2,-5.523585E-2,-1.0240718E-4,-1.00164E-3,4.11215E-2,6.385688E-2,1.0919585E-2,1.2011541E-3,-6.1842043E-2,1.39511E-2,-2.026564E-2,-2.174037E-2,-6.918319E-2,-2.4145912E-2,-6.4937465E-2,4.3902893E-2,-1.0040686E-2,-1.847617E-2,5.4071646E-2,-2.8940557E-2,2.3512818E-2,-7.334192E-2,-5.578559E-4,-2.776852E-2,1.4217557E-2,1.439556E-2,3.4136813E-2,-1.3920036E-2,3.178092E-2,-2.2776267E-2,5.144833E-3,-6.863517E-2,-3.3805784E-2,-5.9807287E-3,-6.666072E-2,2.812461E-3,-2.3090139E-2,-1.6500235E-2,5.550134E-2,-2.9196548E-3,2.6614768E-2,1.2894342E-2,4.006329E-2,-1.5273876E-2,8.805541E-3,3.74789E-2,4.9982138E-2,-1.3515941E-2,3.4568343E-2,8.871215E-3,-2.0065524E-2,-2.3050575E-2,-5.7707407E-2,3.255641E-2,-5.3360462E-2,1.47103565E-2,-2.3732947E-3,1.3902455E-2,-8.912678E-3,3.823508E-2,-1.6499897E-3,4.759842E-3,2.5259227E-2,2.7451942E-2,4.6469383E-2,2.5804734E-2,4.350707E-2,1.5111368E-3,4.0857177E-2,2.557811E-2,4.4728745E-2,4.6527777E-2,